388 768
Upper_abdominal_pain -0.0981130376 -0.0442177132 0.0608314052 -0.2697764039 0.2363562137 0.1682931483 -0.3126072586 -0.0261132270 -0.3410307765 -0.4461933672 -0.0439838544 0.0955316424 0.2904810011 0.3595673442 0.0750146657 0.1671210229 -0.0836108774 -0.1218992099 -0.1170539260 -0.2870391309 -0.3790892959 0.0009678761 -0.1682228595 0.3627293706 0.0602972284 -0.2066388875 -0.0060271746 -0.1843993664 0.1006325036 -0.4451433122 0.2357082665 -0.1459100097 -0.0844004005 0.0885108039 -0.6218580008 0.2177148610 -0.1495835632 0.1422875375 0.0625325814 0.2332614213 -0.2065780908 0.0134342704 0.0884790942 0.1216170043 0.1053730994 0.0935672671 -0.0140577210 0.3774017394 -0.0275408272 0.0113174124 0.3622235656 0.0412727669 -0.1385885179 -0.2547617853 -0.0981243700 0.1137004048 0.2917110324 -0.2427608669 -0.0020088351 -0.1992333978 -0.1674499810 0.0648919269 0.1614674032 0.1029220447 0.0042459881 -0.2250266969 -0.0556692295 -0.3911625743 0.2912432551 -0.1692934483 -0.0947951227 -0.0915253609 -0.1577011943 -0.0309293028 0.1065768600 0.2845387161 0.0147816818 0.1667952836 -0.4082059860 -0.4652052522 -0.1309523284 0.0348422900 0.4284783900 -0.1518865228 -0.1652394831 0.0028011433 0.1085396260 -0.0599528179 0.3586208224 0.1790140569 0.1963413954 0.1694464236 -0.1287234277 -0.0498440079 -0.1480242908 -0.3282570243 -0.2658420205 -0.2899920642 0.1331314147 -0.3152073622 -0.0042952611 -0.2981494069 -0.1089538783 0.1357106864 -0.2771509290 0.1928860694 -0.0440925211 0.1483343989 -0.1653272957 -0.1482990682 -0.1257376075 -0.1488463730 0.0234773979 -0.3152520061 -0.0656197071 -0.2484149188 0.0782752261 -0.2607967854 0.0755085051 -0.5218666196 -0.2474200428 -0.0613905191 -0.1073934808 -0.0174136925 -0.1634928435 -0.1511174589 -0.3353886902 0.1033983603 -0.0833627433 -0.0019296042 -0.0621216074 -0.1609539241 -0.3158825040 0.0141101154 0.0822732970 0.2069589794 -0.4260022044 -0.2774755955 -0.1365559995 0.1902068108 0.0718502700 0.2016836405 0.0486562662 -0.0172692873 0.1808482558 -0.2207333297 0.2202311307 -0.2482643127 -0.0132120149 0.1383325160 0.0850201920 0.2819399536 0.1270036399 -0.1365626156 -0.2241982520 -0.0108627519 -0.0030094197 -0.2467476428 -0.1073765904 -0.3844155669 0.0090350118 0.2325567305 0.0670263767 0.0373183414 -0.1757179052 0.1567215472 0.0387266204 -0.1067614704 -0.1153174266 0.0281789191 -0.0743358210 -0.2439323366 -0.0660549700 0.2691205442 -0.1270858049 0.1219777837 -0.2567372024 -0.1903956980 0.2869219184 0.1479519308 -1.0998109579 0.0575877056 0.2730932832 -0.0848080143 0.0093444269 0.0378534235 0.2849157453 0.0263379999 -0.1838357896 0.1768269390 0.1131953970 0.2971386611 -0.3303214908 0.0478819460 -0.1130032986 -0.2338766158 -0.0718415976 0.2147151530 -0.2863681316 -0.4160830081 -0.0089537967 0.3189777136 0.2144162655 0.2320074737 -0.3481428623 0.1803676784 -0.2652927935 -0.0680082887 -0.0807486624 -0.3178111911 -0.3603936136 0.0600281954 -0.1777188331 0.1814622283 0.1787568033 0.2515097260 0.7179594040 -0.1280690134 0.1902761757 -0.1887807995 -0.2273391783 0.3216349781 0.3889207840 0.0648048073 -0.2686929107 0.3433012068 -0.1084391624 0.1196160913 -0.0426680893 -0.1295452118 0.1830869913 0.2175663412 0.4036858678 -0.1588067114 0.3273640275 0.0549563281 0.1981257945 0.1213612184 -0.0174734071 -0.0282436423 -0.1056810394 -0.1366835833 0.2574750781 -0.0047201961 -0.1089378819 0.0650269836 -0.1185114533 0.0401884131 0.1730346382 0.1588762701 -0.1103474945 0.1726247072 -0.4608038962 0.1829245090 0.0135015044 -0.1869318783 0.1575072706 0.3074161708 -0.0126954662 0.1969996989 0.5319041610 -0.0565566048 0.0484370589 0.0261449870 0.0463277921 0.0296697579 -0.2647062540 -0.0327696651 0.2530076802 0.1738391221 -0.1553074569 0.1798498631 -0.0899265707 0.0483472571 -0.1468718201 0.1320344508 0.1230476722 0.1196293831 0.0545873828 -0.3292300701 -0.1601424962 0.0119248722 -0.0566586480 -0.0062791980 0.3246497512 0.0988925397 0.0179967675 0.2269738615 0.3651933670 0.0989172608 0.0205864199 0.0672104657 -0.3676274717 -0.3005262017 0.5325280428 -0.1447517574 0.3308977485 0.1933578998 0.0726603344 -0.3596053720 -0.0882503539 0.1559840888 0.2890473008 -0.2270595282 0.0460511371 0.0134844659 0.1856570393 -0.1221212745 -5.8159170151 -0.2290701568 -0.0196488239 -0.1115190238 0.1335693300 -0.0962936655 0.0779371262 -0.0868749321 0.0625835806 0.1489698887 -0.1918366998 0.0727344751 -0.0722370297 -0.1156903505 0.1553210914 0.1135379225 -0.1524954736 0.1230970472 -0.0294287857 0.1284684241 -0.0856713206 -0.0870692432 -0.0176675804 0.1001767293 -0.2482428551 0.0216175169 -0.0144255850 0.0366811864 0.1101542562 -0.0566554740 0.1731258333 -0.0345598571 -0.1389952600 0.7547690868 -0.0145455850 -0.2981768847 0.2269453555 0.0304269306 0.2820947170 0.4227202833 -0.4480366707 0.0582043901 -0.0441638641 0.0351734273 -0.0956410617 -0.0078789275 0.1309638470 0.0664376020 0.0124086570 0.0501442961 0.0279568825 -0.1582714319 -0.1421192884 -0.1969337314 -0.0076725045 0.1287366301 -0.1268374026 0.3148213923 -0.1454583704 -0.4035995603 -0.0669179559 -0.0757699758 -0.3123426437 -0.0426395014 0.1733105630 0.0584627017 -0.2605476081 -0.0179330092 0.4935703278 -0.0497650243 0.2786586881 -0.2095669210 0.0702082068 -1.7584766150 -0.1561706364 -0.0676772147 0.1304243952 -0.3753649294 -0.1115890294 -0.1850125343 0.1145363450 0.1571706682 0.3409414887 -0.1535050571 -0.1867338121 -0.1804364920 -0.1843394935 -0.4843135476 -0.0074996827 0.1536407322 0.0573704429 -0.1295656562 0.2262270153 -0.1909160316 0.0084184427 -0.2135640085 -0.2961479723 -0.0665513128 0.0394880772 0.1052343100 0.0884519964 -0.2926565409 0.1643522084 0.3675496876 0.3544343412 -0.1295537055 -0.0019405347 0.0137768183 0.0400454774 0.1331921518 0.1759494841 0.1976941228 -0.3984003663 0.0084454883 -0.1311445534 0.1711315811 -0.4252634048 -0.1673142016 -0.0866340697 -0.0983963534 -0.0232972708 -0.1172466874 0.2636337876 -0.0639234036 0.4720608294 0.0585067645 -0.2149808407 0.0177374538 0.1794160903 0.5338805914 0.2235119641 -0.0797914043 -0.1238673478 -0.1171800047 -0.0413035378 0.3327683806 -0.4437429011 -0.1860698909 0.0958664864 0.2155432701 -0.0672575012 -0.0109327268 -0.0143063981 0.0728982985 -0.2589374185 -0.1851589978 -0.0771673769 0.2634716332 0.2948830128 -0.1758348048 -0.2729588151 0.1205776930 0.0040223375 0.1484787613 0.3316561282 0.3111238480 0.2820870280 -0.1283298433 0.0205741711 -0.1668739319 -0.0246994141 -0.1138411537 0.0953596830 0.0662143379 -0.0572783947 -0.0716998726 0.0324451998 -0.0854184479 0.3294185698 -0.5493929386 -0.2511304319 -0.1024968997 0.2315273583 0.0589808896 -0.2557119727 -0.2843596935 0.1150915474 -0.1163062006 -0.2505639195 0.7154480219 0.2263724059 0.0407075025 0.1992445737 -0.0939914808 -0.0458681174 0.4426232874 0.1401444972 -0.0935471207 0.0873430595 0.0594910309 -0.3339282572 0.0934415236 -0.0186820570 0.2322839797 -0.0163181070 -0.2762129009 -0.0010570908 -0.0988765210 -0.0304792710 0.1306211650 0.2553201914 0.1119950414 0.1850076318 0.2771451771 -0.0630386248 0.1564749181 0.0663158521 -0.1850089729 0.1067960411 -0.1528549641 -0.2297422588 -0.4789778590 0.1500221789 -0.1300318390 0.1739516705 0.0221362077 -0.3197178245 -0.0918619186 0.1009706482 0.1026248559 -0.0597777553 0.0186279565 -0.2025808543 0.1089318618 0.2838347256 -0.5079549551 -0.0725719258 0.0541027300 -0.0541420579 0.2715559602 0.1277731806 -0.9082818031 0.0652500018 0.2131060362 0.3685473204 -0.1100286022 0.3852551579 -0.0250618514 -0.2105072737 -0.2303704470 0.0283115152 -0.1596131623 -0.1515780538 -0.1134468541 0.2972255945 0.1242559329 0.2401993573 -0.4243552685 -0.0036043718 0.0887817740 -0.0945165828 0.0876577720 -0.0022382732 0.3013609052 -0.3077831566 -0.1245993376 0.1054752618 0.2084643394 -0.1313315630 0.1184015647 -0.3891346753 -0.2298308909 0.2388853729 0.4680592418 -0.4402956367 0.0282562636 0.3349236548 0.1038147584 -0.3432420790 0.3282556534 0.1236019135 -0.3637606204 -0.0510845184 -0.0671546161 0.5590683222 0.1622279584 -0.2234139740 -0.2090280801 -0.1803852618 0.2494660914 -0.0887590200 -0.0403002873 -0.1423446536 -0.2734510601 0.0800484270 0.3745757937 0.0220521484 -0.1729898155 0.1678236425 0.3269438744 0.0931579918 0.1475433558 -0.0291210711 -0.0212380551 -0.2743548751 0.1554722637 0.0002242088 0.0781170875 -0.2045944929 -0.0480789244 -0.1695656478 0.2349601090 -0.0846563727 -0.0918399692 -0.1654058844 -0.1845065057 -0.0008022273 -0.1056859121 -0.0398888215 0.1013393551 0.0985615104 -0.1479195058 0.0104184132 0.4126392007 -0.0153758572 0.0814192146 0.1470809728 -0.3006132245 -0.0718273222 0.2422965318 -0.2680600584 0.4857105613 -0.0961776078 -0.3260427117 -0.0966400951 0.0457879677 -0.1198379174 -0.2573386729 -0.2037232816 -0.3176541924 -0.1827819347 0.1655744612 0.1767349839 -0.0143478960 0.1580566466 0.1672039330 0.4107100368 -0.0241122060 -0.2017137706 -0.0360519402 -0.2397322953 0.1474426836 -0.3447183967 0.2505040765 0.1889788061 0.2152664214 0.0403121635 -0.0789434463 -0.0002980322 -0.2506303787 -0.3733020127 0.3723242879 0.0947057679 0.1841756105 -0.0069846297 0.0185306035 0.0174841024 -0.2092887610 0.0580573194 0.2447009385 -0.0226253103 -0.3274565637 -0.2929891944 -0.3089725673 0.0447472520 0.3399184644 -0.2884449363 0.1699120551 -0.1179421321 -0.2178114653 -0.5427130461 -0.3126505017 0.2125684023 -0.2406702340 -0.1473726928 -0.2267347276 -0.0882780924 0.1058696732 -0.0351537913 -0.1622617096 0.1465662718 -0.1811509579 0.0640096664 0.0942609906 -0.0761751607 0.1156437770 0.2115436047 0.1497313678 -0.1968735009 0.0274567101 -0.1025283560 0.0867286101 0.6255680919 0.0892787725 0.0510360897 0.0547321849 -0.0665429905 -0.2670939565 0.0343137495 -0.0223827064 0.3186967671 -0.3808202147 -0.0379406102 -0.1824959368 -0.3646129072 0.0303773731 -0.1129450947 -0.2023642510 -0.2515471578 -0.3527361751 -0.0874715894 0.2980115116 0.2557615638 -0.2517957389 0.1021468639 0.0008205622 -0.2930321395 -0.0592484549 0.0894939899 -0.1970913410 0.1630900949 -0.2903856635 -0.2618682086 -0.1186818108 0.3760389686 -1.0436775684 -0.1667075753 0.0003643993 0.2000435144 0.1892530024 0.0170236528 0.2958576679 -0.2400271147 0.2451706827 -0.0280784555 0.0622703955 0.0445440225 0.1218724027 -0.1148726121 -0.1912207454 -0.0299591571 0.1972896755 0.0572400503 0.2067510635 0.2909363508 0.5717927217 0.0861525983 -0.3545412421 -0.0277419891 0.1437564939 0.0603169315 -0.1193200350 0.3630357981 0.0189588275 -0.1965822875 0.1122332960 -0.1474539936 0.1089437976 -0.0123421727 -0.3975069523
Lower_abdominal_pain 0.0185298268 -0.1207723022 0.0938694924 -0.3030852675 0.1105014905 0.1895046085 -0.3062955141 -0.0764047131 -0.1937665790 -0.4448763728 0.0080925915 0.0727440789 0.3323171735 0.3954227567 0.1567819715 0.3579511940 -0.0158812888 -0.0927210376 -0.1638864428 -0.2888261080 -0.4311895967 -0.0238930676 -0.2353682965 0.2622479498 0.0515650809 -0.1641100347 0.0206997339 -0.0636549518 0.1665703952 -0.4193941653 0.4054911137 -0.1390448213 -0.0698641315 0.1274054796 -0.4945960939 0.2599109709 -0.1437624544 0.1586036086 0.0447622612 0.2509668767 -0.3772807717 0.0012487523 0.1252101362 0.1641708463 0.1067565680 0.1456207931 0.0285427570 0.3079265952 -0.0423132069 0.0347020216 0.3588378131 0.0598875470 -0.2094719708 -0.2054910660 -0.0419409573 0.1877830327 0.2003864944 -0.2239843160 -0.1133462414 -0.0835129172 -0.0871098414 0.1179004088 0.2310918272 0.1024122834 0.0667227283 -0.1591925770 -0.1075386181 -0.4283027053 0.2798069119 -0.1279988438 -0.1407039464 -0.0582417324 -0.1333505064 -0.0204972867 0.0691910386 0.2663678527 -0.0594646260 0.1962404102 -0.3843467236 -0.5255450010 -0.0979090333 0.1422894001 0.2857775986 -0.1356113553 -0.1306921095 -0.0187501870 0.1226976514 0.0252707750 0.4156244397 0.0170132574 0.1544392407 0.0586191304 -0.1123068184 -0.0733097643 -0.1786173135 -0.3648438752 -0.2052976638 -0.2250638753 0.0804406404 -0.3119343817 0.1629410982 -0.4593388438 -0.0908649564 0.0983586758 -0.2550392151 0.1782431751 -0.1067356244 0.1469796598 -0.0300143622 -0.1502823979 -0.2010301352 -0.0850781724 -0.0291646384 -0.2610769868 -0.1071025878 -0.2185977697 0.1303035021 -0.2514928579 0.0835219696 -0.4385893345 -0.3324459493 -0.0627212971 -0.1190004721 -0.0006006286 -0.1942173988 -0.1965900958 -0.2880792916 0.0098601440 -0.0684408695 0.0160041340 0.0957322642 -0.2326584160 -0.2165804356 0.0548522249 0.1120954901 0.1810093224 -0.4717577398 -0.2490986139 -0.1489915848 0.2266514301 -0.1624109447 0.1419481039 0.0730382353 -0.0971695632 0.2178503275 -0.2715175748 0.2277959883 -0.2128716260 0.0344199426 0.1290328652 0.0463677570 0.2620509565 0.0497292913 -0.1529681683 -0.2535012364 -0.0482480712 0.0576131158 -0.3524743617 -0.1005735844 -0.2808138132 -0.0213640258 0.2482591569 0.0554951839 0.0878238231 -0.1659084260 0.0443439074 0.0509168133 -0.1887933314 -0.1781580746 0.0995555595 0.0282401498 -0.3096327186 -0.1425264180 0.3603757322 0.1208793521 0.1364841014 -0.2032777965 -0.1996070147 0.3012136221 0.1592683792 -1.1044595242 0.0299528129 0.0957048237 -0.0492545515 -0.0248122271 0.0465971455 0.4040527344 0.0189431217 -0.1070957035 0.2072687596 0.0316176265 0.2850863039 -0.3196759522 0.0290745553 -0.0006152764 -0.2840487957 -0.1579517275 0.1602366567 -0.3408505321 -0.3643323779 -0.1733981520 0.2644197941 0.1940796673 0.0994719192 -0.3183104992 0.1445647627 -0.3748852909 0.0262582153 -0.0047696657 -0.2801957726 -0.3692055047 0.0170717034 -0.1062342897 0.2086646110 0.1326708943 0.1933424324 0.6857019663 -0.1016384736 0.1389575303 -0.2805592418 -0.1237834319 0.3605614305 0.2759514451 0.0596948639 -0.2830093503 0.3499563038 -0.1615417898 0.0099762604 -0.1293136179 -0.0459444895 0.1087773815 0.2457598150 0.4150975347 -0.1775678396 0.3552983701 0.0205688104 0.1935596168 0.1768613756 -0.0088635478 -0.0385452472 -0.0839495286 -0.0277780388 0.2804673016 -0.0916964635 -0.1385636032 0.0673952401 -0.0566430800 0.0700825602 0.1502029598 0.2213385105 -0.1554906815 0.2312506437 -0.3900511861 0.1580830663 -0.0684905276 -0.1276235133 0.1145128608 0.2970409095 -0.0191466212 0.2407473773 0.3918861747 -0.1181143895 -0.1102420911 -0.1149699241 0.0261096545 0.0889618024 -0.1696461290 -0.0833414868 0.2575603127 0.0932941437 -0.1468841434 0.1458240300 -0.1101010889 -0.0160947926 -0.1532153785 0.1020191312 0.0846573412 0.1408116519 0.0059808791 -0.2766798139 -0.1139573902 0.0410892554 -0.0388383083 -0.0794371441 0.3357977867 0.1596368998 -0.0222490877 0.2613926232 0.3208959401 0.0280855540 0.0545448586 0.0050109848 -0.3920214474 -0.2422527373 0.5114983320 -0.1060085893 0.2710477114 0.1412453800 0.0854537413 -0.3153797090 -0.1305941641 0.0924674794 0.3160415292 -0.0929569602 0.0952893794 0.0211329069 0.1043279618 0.0329084471 -5.5286817551 -0.1957905143 -0.0284396354 -0.1164734736 0.1704109609 -0.0740030259 0.1601146013 0.0100006582 0.0514901504 0.0540322289 -0.2056382000 0.0702461451 -0.0452575609 -0.1179137379 0.2720459104 0.1630256772 -0.0929437503 0.0760866255 -0.0740723237 0.0606878623 -0.0624157265 -0.0612185672 -0.0757846981 0.0823571905 -0.3015010357 0.0762586817 -0.1278259307 -0.0569622405 0.0953737050 -0.0364627652 0.2561678886 -0.0104843341 -0.1162550300 1.0008054972 -0.0565929711 -0.2542127073 0.2086288631 0.0723893717 0.1681263894 0.4664823115 -0.5190738440 -0.0093559204 -0.0249538273 0.0186806191 -0.0909639895 0.0455272906 0.1307139099 0.1270686984 -0.0216275044 0.0896481946 -0.0088878814 -0.2394607067 -0.0272961818 -0.1902479678 -0.1110979766 0.1489715278 -0.0741423294 0.3898532391 -0.1599923223 -0.4738525748 -0.1191958040 -0.0988544971 -0.3500812948 0.0022885557 0.1247178465 0.0735591799 -0.2776674032 -0.0463218428 0.4895301461 -0.1457519531 0.3082367480 -0.0816084519 0.0543367751 -1.7577030659 -0.1083234921 -0.0509288311 0.1271245182 -0.3733923137 -0.1266568005 -0.3025242090 0.1819226146 0.1402717680 0.2688493133 -0.1843907237 -0.2381804883 -0.1497122198 -0.1899816543 -0.6408352852 0.0877794847 0.0964334607 0.0333459601 -0.2567146420 0.1873987913 -0.1707816422 0.0222951323 -0.1798992753 -0.1763280630 0.0322145000 -0.0303238519 0.1432791501 0.1036556512 -0.2182518691 0.1577835381 0.3894236982 0.3442646265 -0.0978232473 0.0007457632 0.0165421013 0.0793588236 0.1183822602 0.1142693534 0.2103250325 -0.3390268385 -0.0141270040 -0.0629261881 0.2469168603 -0.3274439275 -0.1334967315 -0.1239005923 -0.1504828632 0.0440365262 -0.0609321781 0.1523211896 -0.0975737423 0.4065313935 0.1850350201 -0.2582966685 -0.0229781531 0.1485346109 0.4434190691 0.2016241848 -0.1140394583 -0.1022074968 0.0071501075 0.0010695584 0.1869941354 -0.4973425865 -0.2448639423 0.0296302028 0.2627417445 -0.0260820631 0.0305758379 -0.0554637983 0.1894912422 -0.1666519344 -0.2097321004 0.0325807929 0.2770850956 0.3182154298 -0.1631153226 -0.2281848192 -0.0254619364 -0.0432534628 0.0829504058 0.3747932017 0.2304982841 0.1779206246 -0.0968397185 0.0120992865 -0.2183997929 -0.1371602118 -0.1358187050 -0.0395044796 0.1076375842 -0.1445325464 -0.0283888280 -0.0328852609 -0.1225103959 0.2959913909 -0.6421586275 -0.2844621837 -0.1528516114 0.3063015938 -0.0141227227 -0.2257083207 -0.2945867777 0.2048581392 -0.1182273999 -0.1880936921 0.6365443468 0.2411872596 0.1509505659 0.2715263367 -0.2829802930 0.0156603381 0.4382806718 0.2437605858 0.0044180648 0.1012139544 0.1040141210 -0.2987156808 0.1494853646 0.0160816405 0.2710013986 -0.1186232418 -0.2010420859 0.0970342904 -0.1658197939 -0.0247520041 0.1461305469 0.2042564899 0.1780863702 0.2015126646 0.2768569887 -0.0026925348 0.1311350167 -0.0098170219 -0.0050325571 -0.1168220043 -0.1537719220 -0.2204259187 -0.6005229354 0.2205722630 -0.0828599185 0.0833292082 0.0695635304 -0.3537067771 -0.1580565125 0.0151086207 0.1550077647 -0.1108190864 0.0170063432 -0.2018028200 0.1506553143 0.3094832599 -0.5828098655 -0.1086144596 0.0735836774 -0.0023962432 0.1985919029 0.1512270570 -0.9351725578 0.0225303415 0.1949970424 0.4833536744 -0.1287558228 0.1835511625 0.0675350577 -0.2007078677 -0.1853807718 0.1078749746 -0.1046590582 -0.1424864233 -0.1540604532 0.2453000993 0.0372623578 0.2369558066 -0.3781373203 -0.0225418471 -0.0193143152 -0.1263063103 0.1109362692 0.0008900668 0.4182025790 -0.2955251634 -0.2476924211 0.0616610125 0.1080784053 -0.1234830469 0.1242047772 -0.3152191341 -0.2361804694 0.3478480577 0.6090551615 -0.4022337496 0.0050932253 0.3418349624 0.1129631251 -0.3147485852 0.3448980451 0.0452475920 -0.2858185768 -0.0417453572 0.0113554178 0.4756630957 0.2255566120 -0.1554515362 -0.1653609872 -0.0890995115 0.2227651775 -0.0646600649 0.0272030048 -0.1351051480 -0.3205551803 0.1436583102 0.2753412127 0.0433500744 -0.2207309306 0.0591941886 0.2797849774 0.0920296907 0.1193972230 -0.0255516581 -0.2204250991 -0.1953310519 0.2116522342 0.0055392943 0.0833553448 -0.0632962435 -0.0702604130 -0.2527160943 0.3279293478 -0.1156011373 -0.0699395314 -0.2103362530 -0.1881093532 0.0188405477 -0.0521912351 -0.0493890867 0.1299319565 -0.0641867965 -0.1051918641 0.0313289352 0.3736795783 -0.0900615379 0.0084677050 0.1411979198 -0.3581208587 -0.0533633120 0.2057405412 -0.2800570726 0.3717489243 -0.0522726588 -0.2151959836 -0.0347734094 0.1430296153 -0.1127994657 -0.2803632021 -0.1968307197 -0.3300711215 -0.2441114932 0.0802793577 0.1213557720 -0.0114054028 0.0412159488 0.1879619360 0.4039017260 0.0339965448 -0.2140822709 0.0459209792 -0.1899122000 0.1062190905 -0.3389002681 0.3416237533 0.3003371060 0.2576725483 -0.0428633280 -0.1178354397 0.0020959317 -0.2819533348 -0.4760388732 0.4572824538 0.1777485907 0.2979620099 0.0419905186 0.0046398267 0.0197062436 -0.3094399571 0.0368742384 0.2776245475 -0.0768652111 -0.3243370950 -0.3384832442 -0.3033097386 0.0097650159 0.2868770361 -0.2389232367 0.0813729912 -0.1527223736 -0.2207729518 -0.5396831632 -0.2385909110 0.2188716233 -0.1550517380 -0.1422532350 -0.1465478241 -0.0878769308 0.1211603656 -0.0975579023 -0.1391908079 0.1163192242 -0.0900513381 -0.0171041302 0.1740005314 0.0122464672 0.0365319476 0.2663341463 0.1933598518 -0.2085275203 0.0671747476 -0.1205770224 0.1473235935 0.6780649424 0.1396696568 0.1116281524 0.1544201225 -0.0293114185 -0.2069385797 -0.0467541590 0.0421394221 0.3292745948 -0.2294479162 -0.0626951605 -0.1113570184 -0.4027714133 0.0197393857 -0.1324131042 -0.1403310299 -0.1926686764 -0.3866295218 -0.1552004367 0.2539387941 0.2480337322 -0.2314807475 0.1567258239 -0.0539297275 -0.3421749473 -0.0739439055 0.0190502796 -0.2435411215 0.1818692833 -0.2161037475 -0.2311089784 -0.1784439385 0.3246116936 -0.7240818739 -0.2178766727 -0.0210594051 0.1022583693 0.1242717654 -0.0936897546 0.3340848088 -0.2482139766 0.2077644318 0.0728273541 0.0015661378 -0.0370781757 0.2148678601 -0.1365751177 -0.1627205908 0.0549821854 0.1770676076 -0.0851915628 0.1398045123 0.2935237288 0.4466614127 -0.0276142359 -0.2890958190 0.0277209915 0.0578407720 0.0986188203 -0.0261170827 0.3311677277 -0.0685366616 -0.1575525105 0.0299607124 -0.1161856428 0.0648857951 0.0497243851 -0.2720361054
Abscess_(Collection_of_pus) 0.1443845779 -0.1880636811 -0.0064114658 -0.2019748837 0.4039304852 -0.0811211318 0.0654279590 0.2290406376 -0.3444469273 -0.1360962093 -0.1731334478 0.0968298614 -0.1170537695 0.2760244310 0.2420901656 0.2340603322 -0.3168905079 -0.3553041220 -0.1044369265 -0.0843958110 -0.2377538830 0.0959795415 -0.6780768633 0.1665978283 0.1384612769 0.0816212595 -0.1827798784 0.3051070869 0.0446683057 -0.3373956978 0.1585774571 -0.3540962040 -0.0601898693 -0.3055864573 -0.0685719922 0.2971386611 -0.0485527888 -0.1259480119 -0.2502456009 0.4420608282 -0.2588317096 0.1246221066 0.1459483951 -0.0463860370 -0.1640425771 0.3273536563 0.1622315049 0.1697963923 -0.1194353104 -0.1042986363 -0.0963553488 0.0700498521 -0.0822496191 -0.3903933465 0.1700510979 0.4471817911 0.1306581795 -0.1652666926 -0.1203312874 -0.0537205711 -0.4652229249 -0.0675515607 0.3314381838 -0.1926660687 0.1943700314 0.0054107881 -0.1472354680 0.0419826806 -0.2076081187 -0.0669146925 -0.0881814957 0.1839168668 -0.0216783471 0.0723772570 0.2081843913 -0.1087661535 -0.1226122901 0.3210900128 0.1996547133 -0.2136163563 -0.2979305089 0.4720156491 -0.3555551767 -0.2252998501 0.2621521652 -0.0507324673 -0.1012779251 -0.0971156657 -0.0444879830 0.4286113083 -0.1065277383 0.3477003872 -0.2454230636 -0.0877465680 0.1904328465 -0.3994441032 -0.4002262950 0.0853046104 0.0953405425 0.1050712764 0.0556728579 -0.0276969895 0.0621267557 0.2212066650 0.2195849270 0.1211597919 -0.1803199798 0.3150072396 0.2311128527 -0.2354853302 0.1594759375 0.0087742871 0.0975202397 -0.0174762569 -0.3041305542 0.4470194876 0.0628483221 -0.3133560419 -0.0384430289 -0.2806377113 -0.3593232930 -0.1573030800 -0.0067127002 0.0871255696 -0.3441815674 -0.1863557249 -0.4140910208 0.1090236604 -0.0834994465 0.4187035263 0.1214292347 -0.1654150188 0.1897561103 -0.0655542836 0.2799656391 0.2947676182 -0.1980246902 -0.2262587696 0.0366628803 0.0897848383 -0.1425842494 0.1238467991 -0.2627315223 0.3726221919 0.1431151628 -0.2116657346 -0.1676958650 -0.0051991385 0.1783059835 -0.2318807095 -0.2558262646 0.3088171184 -0.1053186730 -0.4269624054 -0.3696699440 0.0025459675 -0.0096795419 -0.1550159454 0.1195590422 0.0838912502 -0.0713870525 0.4761218727 0.1243963987 0.2457416058 -0.3482121229 -0.5717737675 0.1437623054 -0.1351655424 0.0416928641 -0.0652362555 -0.0403028652 0.0173330735 -0.1011430994 0.3314166367 0.4425854683 -0.0404787958 -0.0501234680 -0.1931589097 0.1152180731 0.0050381441 -0.8460601568 0.3222971857 -0.1801508516 0.0596635826 -0.1924006790 0.2935443521 0.8806209564 0.0148554360 0.3472265899 0.1598787904 -0.2721507251 -0.0192901026 -0.2966294587 0.1606330723 0.1323667318 -0.1530420780 -0.3907808959 0.1556746364 -0.0867909864 0.1066469252 -0.1677067131 0.1182578579 -0.2217465341 -0.0760217234 -0.4801473320 0.0832563937 -0.1271296144 -0.4900726378 0.2874930203 -0.1475873142 -0.0658910945 0.0921697691 -0.3016032875 -0.1950778812 0.1135565266 0.0977914333 0.1421408355 -0.1345716864 0.1195924208 -0.1650643498 -0.0627103150 0.2262804657 0.2611533701 0.0380793959 -0.1376868337 0.6883145571 0.3396614790 -0.2591022551 0.1353812665 -0.1761175543 0.0002199147 0.4857591391 -0.0405050963 -0.0818532184 -0.3929812610 0.0947123319 -0.0898180082 -0.1305680573 0.3146830499 -0.0676926672 -0.0068362523 -0.1905825585 0.2281448990 -0.0612230748 0.2593796849 0.1478321552 0.2110949010 -0.2721150219 -0.0179635212 0.1035558954 -0.4679604769 0.3168736994 -0.1317936033 -0.0421111807 -0.0187689289 -0.0069244341 -0.4014339745 0.0170437973 -0.0465129167 0.0039569242 0.0574659705 -0.1387728155 -0.0280551631 -0.1072129086 -0.2320127636 0.2571416199 -0.2820730507 0.0965689942 0.3008509576 0.0195791442 -0.0985260233 0.2381315678 -0.0270541832 0.0142330229 -0.0816417038 -0.0142706446 0.2161528468 0.2035198212 -0.0930930153 -0.1612727195 0.2421581894 -0.2850953043 -0.5683745146 0.2053318918 -0.1024482697 -0.0870765373 0.2644611597 0.4079518318 -0.4989372194 -0.1271055788 -0.0754603669 -0.0754206181 -0.0118451770 -0.1715371609 0.4567644000 0.0818844736 0.0554098524 -0.2645848691 -0.0725714937 -0.2688391507 -0.1865406632 0.3397534192 0.0333678387 -0.2743078172 0.0968187526 -0.0557969436 -0.1686704010 0.2900110483 -7.0707564354 -0.1277762055 -0.0013522758 0.1805472672 0.3037340939 -0.3466126919 0.1905714571 -0.1219538972 -0.3214762807 -0.1351378113 -0.3733865619 -0.2494753748 0.3010531962 -0.2459555566 0.2126749605 -0.0482541211 0.0106403288 -0.0359003693 -0.3526015580 -0.2704231739 -0.0830655172 -0.1843853891 0.1145413816 -0.0531884804 -0.3013940156 0.3321940303 -0.4469868541 0.1043154448 0.1542298943 0.1495805085 0.0523568355 -0.3287422061 -0.3058389723 1.0164853334 -0.4000471830 0.0926657394 0.0333216116 -0.1315210015 -0.1784186661 -0.0238522459 -0.4459832311 -0.4232063591 0.1494349688 0.1216186360 -0.0630124137 -0.0033278910 0.0696439371 -0.3173480630 -0.3117958307 0.0394358151 -0.1384793818 -0.2022121549 0.0087869950 -0.0105486335 -0.1501526386 0.0453199223 0.4914147258 0.5874182582 -0.1629224867 -0.2401017249 0.0982205570 -0.1207672432 -0.3351061642 -0.3570179045 0.0477359891 -0.0774914473 -0.2881945968 -0.0674488470 0.4989138842 -0.0868551657 0.2253240645 -0.0685285628 -0.4461946785 -2.0395491123 -0.2755392790 0.4840250313 0.1336502433 0.1351508796 -0.3390810788 0.1159853637 0.0117297973 0.0340273418 -0.0085000331 0.2153700292 -0.0831880867 0.1645466983 0.0569082350 -0.3989515007 -0.3272935748 -0.0685823262 -0.3816400468 -0.0677749366 -0.1895159781 0.1507384628 -0.1479733288 -0.0316948742 0.0788709968 -0.1598543972 0.2877662182 0.3243864477 0.3728453517 -0.2852189243 -0.1778132915 0.1579254270 0.2232872397 -0.3034496009 -0.2532427609 0.0342102386 0.5433521271 0.0796584263 0.4007385075 -0.0336568132 -0.1715451032 -0.2855326831 0.0521836840 0.3975065351 -0.3621897697 -0.0250649210 -0.0145168602 0.2791394293 -0.1222148910 0.2351430357 -0.2010035068 0.1161041334 -0.2102729678 -0.0508727543 -0.0500883572 -0.1835887581 0.0767823681 0.1710827351 0.1206064969 -0.1820836216 -0.0204359237 0.0706511363 0.0591735393 0.3299153745 -0.1147341728 0.0713740513 -0.2466350943 0.3510452509 0.1558426917 0.0259106588 0.4733555913 0.2129788846 -0.3895540237 0.2535318136 0.2176294178 0.0457570553 0.2510885894 0.1706783921 0.0727735087 -0.1378067732 -0.0664562061 -0.3558341265 0.1655363888 -0.2409370989 -0.0383852758 -0.1349002719 0.2855089605 -0.3299722970 -0.0906948745 0.1897487044 0.2007961422 0.1487605870 -0.2288569063 -0.2387561947 0.1391346753 0.0067472104 -0.0431979410 -0.1543976218 -0.3171157837 0.0135251852 -0.0365660712 -0.0597333796 -0.1792428344 0.0000641488 0.3369613290 -0.0654044375 0.2595693767 0.7008526325 0.1875952184 0.0426503979 0.4545847774 -0.3954024613 -0.0331975482 0.2306618243 -0.1075896919 -0.3374105394 0.0200418364 0.1895287633 -0.1925514340 0.0145418942 0.2606065571 -0.2660267055 0.0683031976 -0.3875191808 -0.1584122628 0.0696258470 0.0159115326 0.1560768187 0.2011856586 0.0258084368 0.2454736233 0.2304208130 -0.3427714109 -0.0969304144 0.2949289382 -0.0648242608 0.0606803447 0.2543920279 0.0990196764 -0.2085576952 -0.1747463644 -0.0139376707 -0.1306082308 -0.4132246971 0.2312732339 -0.5303184986 -0.2717520893 0.1017254516 -0.2579541206 -0.0974876359 -0.0326841511 0.0878668502 0.0368267745 -0.1638140380 -0.2107283622 -0.1039888933 -0.2479195148 0.1941581368 0.1084454954 -2.0223596096 0.0236464366 -0.2146793455 0.7590232491 0.1854489446 0.2752175033 0.2772183120 0.0662460327 -0.2179769427 0.0252385065 -0.1009524763 0.1367864460 -0.0752769038 -0.2014590800 -0.1732220799 0.3132359684 -0.1345334202 -0.2457709312 0.0443457924 -0.0376889966 0.1380534619 -0.1186272204 -0.0985850617 0.0881082714 -0.1081825495 0.3410491943 0.3530290425 0.0354719199 -0.2156435400 -0.2452806830 0.3526768982 0.1516172886 0.0663968623 0.1016653851 -0.4265096784 0.3151242137 0.2842914164 0.2155036330 -0.1609765738 -0.0762122422 -0.0239861123 0.3793313801 0.3386091590 0.5044347644 -0.0213665180 -0.0803315118 -0.5544388294 0.1338892579 -0.2874677181 0.0263737980 -0.0329693370 -0.2183977515 0.0094072409 -0.0817314014 0.5672065616 -0.1578235030 -0.1655960530 0.2620671093 0.1746555269 0.3216393292 -0.2955202162 0.2748890519 -0.4059794545 -0.2263961732 0.4717670381 0.1520804316 0.0008298805 0.2162244469 -0.4188742936 -0.3785876334 0.2269348949 0.2440801561 -0.0615083203 0.2244673371 -0.1859916151 -0.1989380270 0.2105774730 -0.2201431841 -0.5234996080 0.1092500687 -0.1720229536 0.0419944748 0.1731764376 -0.0235558562 0.0425724499 0.1186152399 -0.1351154894 -0.4311781824 0.2474177927 -0.1609333307 0.4264146090 0.0705497265 -0.2476165742 0.1381664127 0.0544072129 -0.3909336030 0.0054344418 -0.0325612165 -0.1609820873 -0.0065922262 0.3561494350 -0.2176837474 0.3270421624 -0.1886172295 -0.2320538163 0.4542994499 -0.2471346259 -0.0071949335 0.4401439428 -0.0320749842 0.2461843640 -0.0331446379 0.1706161052 -0.1923731863 -0.0376916789 -0.1125784814 -0.2485554367 0.1983217150 0.1745847166 -0.1454452127 0.0851044133 0.4673794806 0.9897192121 0.4269521534 -0.1202861071 -0.2879563570 0.0737487003 -0.0434693359 0.2656520605 -0.1991419196 -0.2703213990 -0.0777166337 -0.3144167364 -0.4062821269 0.2527775168 -0.2541536689 0.2629038393 0.0190678108 0.2250962108 -0.2566770315 -0.4349291027 0.1341356933 0.2419523597 0.0666072667 0.1278892905 0.1253025681 0.0351227336 -0.1161821783 -0.2836372852 -0.1696914285 -0.0652376860 -0.0976612344 -0.0178768113 -0.1761964709 -0.2520827949 0.2171554118 0.0252200961 0.2265846878 -0.2074598372 -0.0670962259 0.1630156189 -0.0005211573 0.1619697213 -0.2761968374 0.1252774745 0.2326213419 -0.7316179276 0.2058188319 0.2624573112 0.1795628965 -0.1441947371 -0.2630787194 0.2838373780 -0.1891505569 0.4380562007 -0.2425190955 0.0616470240 -0.4682353139 0.0968348235 -0.0502014309 -0.1585473865 0.3089036345 -0.1792907417 0.0025074782 0.0286679398 -0.1518930048 -0.4091558754 -0.0263555050 -0.2133092433 -0.1306651980 -0.0543033443 -0.2766666412 0.0496709086 0.1836544126 -0.8425459266 -0.0161052179 0.1426008791 -0.1461524069 0.0567235984 0.0808207318 0.2865847051 -0.2172159553 -0.1182930246 -0.0412680432 0.1067184135 -0.0802741796 0.3873688579 -0.1000310183 -0.0032831242 0.4261039793 0.1229575574 0.1473466307 0.2041457742 0.0707787350 0.0819811523 -0.0229422525 -0.0797667652 -0.1017641798 0.2490786612 -0.1373617649 0.0946310461 0.6527925730 -0.1526971012 -0.2348271757 0.2506878674 -0.2315795273 0.0647403598 0.0249465425 -0.1387702823
Alcohol_abuse 0.2023587525 -0.0561233200 0.0074694501 -0.3832043409 0.4589051902 -0.1142997220 -0.2256936431 -0.1867705435 -0.1065608412 -0.0085958112 -0.0031521777 0.1940354556 0.3141344190 0.1543285847 0.1662691385 0.2899389863 -0.1633099914 -0.2263840437 -0.0611656532 -0.3254433572 -0.1981444508 0.0230333675 -0.3332551122 0.0319849215 0.2976044714 -0.0784326941 -0.0532463565 -0.1603961140 0.3056497574 -0.1188695058 0.3991233110 -0.2538325191 0.1848489344 0.1351851970 -0.3400990665 0.0632143840 -0.3260264993 0.0328705236 0.3460719883 0.2268751115 -0.0047542518 -0.2777690887 0.1281646192 0.1199321076 -0.2325346470 -0.0024525560 0.1528092772 -0.0292036757 0.0256309640 -0.0885459334 0.2293365002 -0.1466391236 -0.1883869320 -0.0271130297 0.2203393131 0.0830370188 0.2811697125 -0.2427778244 0.0750041455 -0.2370593995 -0.1345333159 0.0524954982 0.1920493841 -0.0170752499 0.0859318748 -0.0882146358 -0.2149198800 -0.3819953501 0.2302110195 -0.4563924372 -0.0270059630 -0.2343428135 -0.2816068232 -0.1999606937 -0.1079638079 0.2897624075 -0.2063793391 0.0671882182 -0.3310800195 -0.4160400033 0.0341403931 0.2701782286 -0.0327572785 -0.1750901043 -0.1408569515 -0.0997917131 0.0956456661 0.0517239794 0.2861232758 0.0654474199 -0.1581661254 0.2962969840 -0.2478256375 -0.0211444050 -0.0221945513 -0.1309902668 -0.3281500936 -0.1737588644 0.4071768522 -0.6643878818 0.0524120554 -0.1772140414 -0.3251637816 0.0242126063 -0.2477110475 0.3426290154 0.0554783493 0.1252602190 -0.0717253834 -0.3906448185 -0.1320730448 -0.1423678398 0.1166994870 -0.4940509498 0.0195359271 -0.1482999027 0.1095596105 -0.1373238266 0.2836724222 -0.2601255476 -0.4378853142 -0.1313150376 -0.2308422923 0.0554540344 -0.2714262009 -0.0988996997 -0.2984721959 0.2418429404 -0.0817771927 0.1066927761 -0.0257016849 -0.2412353009 -0.1837816536 0.2769519687 -0.0036742901 0.4686888754 -0.3553743958 0.0136446347 0.1252853274 0.1059494615 -0.2308402956 0.3994016647 -0.2454424500 -0.2507945299 0.0649597347 -0.2485313416 -0.0880127996 0.0122808553 -0.2197917551 -0.0655460507 0.1982215494 0.2577615976 0.0543425940 0.0598862506 -0.0955452099 -0.0200498775 -0.0768313408 -0.2675257921 -0.4018319249 -0.2929328084 -0.1005220190 0.3352033496 0.0368228145 0.3067884743 -0.0992590562 0.1615438014 -0.3337743878 0.1855147928 -0.2703214884 -0.1243816912 0.3424444795 -0.4678889215 0.0135377804 -0.0420543067 -0.0373423658 0.1884978563 -0.1383373290 -0.1752586216 0.0795893967 0.2470860034 -1.2288614511 0.1833558977 0.0617526770 0.2722117007 -0.0440352932 0.1983550489 0.2123684734 0.2339978367 -0.0465585962 0.1794303209 0.1606486440 0.1222299710 -0.3392889500 0.2598349750 -0.2070464939 -0.4707743227 0.2053453326 0.0662036762 -0.0516352654 -0.2943128049 -0.4305305183 0.0134789143 -0.0479983613 0.1274299026 -0.1379403025 0.0773647428 -0.1169430241 -0.2487948537 -0.0781736895 -0.3415444195 -0.1801542491 0.0589381792 -0.3030503392 0.2529885471 0.0191611070 0.2578859627 0.2750331163 0.0021224099 0.2385538071 0.0125320293 -0.0898934156 0.2178482860 0.1444231570 -0.0620600805 -0.3408606946 0.3132776022 -0.1689670682 0.1717772484 0.2332177907 -0.3011361063 0.2437733710 0.3209628761 0.1024582684 0.0250944309 0.2383126616 0.2381054908 0.3616864979 0.1103516221 0.0283442289 -0.0476165339 -0.0336375199 -0.1261534989 0.1687765718 -0.0563987307 -0.1040680930 0.1885900795 0.0674912706 -0.1276615262 0.2242282480 0.2880245149 -0.0545969196 0.0598115921 -0.1559331864 0.3902957439 0.1635114849 -0.0782964304 0.0023696055 0.0664482638 -0.2370538712 0.2406673133 0.5569781065 -0.1295931786 -0.2650146186 -0.0221328083 0.1554137021 0.1691834480 -0.1183605790 0.1705094427 0.0188767817 -0.0918884203 -0.2186407149 0.3668864369 0.1008478552 0.2401705980 -0.1323207170 0.2600108981 0.2425972521 0.2054194808 0.1251853406 -0.2072391659 -0.2147796303 -0.2691183090 -0.0796183199 -0.0482490212 0.2683511972 -0.0829307139 -0.0355633125 0.1368418336 0.2358430475 -0.1667871475 -0.0279904921 -0.0920998007 0.0059635942 -0.3827143908 0.5483191013 0.0770510882 0.2408815026 0.3063645661 0.0773590431 -0.2993895710 -0.4078452289 -0.0085697612 0.0339532383 -0.2413875759 0.2184534222 0.1421894431 -0.0462986194 0.3533172011 -5.4211378098 -0.1503135860 -0.2991225719 -0.3653191626 0.3008657992 -0.0997145697 0.1239611059 -0.2165170461 -0.2482672036 0.1387941837 -0.0575610772 0.0397518799 -0.1998047829 -0.0825318098 0.0563609898 -0.3255236149 0.3128252625 -0.1415398866 -0.0767038390 0.0709597319 -0.1833827645 -0.1707925200 -0.0514627844 0.0206955485 -0.4118270576 0.2683504224 0.0421407074 0.0142539106 0.2769038081 -0.2952249944 0.0768648833 -0.0865601897 -0.2850897312 1.0775609016 0.0530968606 0.0188254789 0.2286484390 -0.0828357041 -0.0553823784 0.4901582599 -0.6035362482 0.0017835349 -0.0782557130 -0.0979824364 -0.1002984717 0.0926847979 0.1303933859 0.0404707007 0.0154584264 0.0282445215 0.0283399168 -0.2559161186 0.0894284099 -0.1654356271 0.1029928178 0.3153907061 0.0428214855 0.1239890978 0.0124059618 -0.3208122253 0.0741266310 -0.2281843126 -0.1431003809 0.1048438922 -0.1322745234 0.1096328124 -0.3301814497 0.0768541098 0.3443315625 -0.1932511926 0.2406921089 0.2455598712 0.0576525070 -1.5536917448 -0.2810851038 -0.2095831037 0.3228662312 -0.1641459316 -0.1081055701 -0.0772128180 -0.0651719347 0.2535988390 0.4406833649 -0.2181165069 -0.1807721108 0.2218198031 -0.1396203339 -0.0119730607 0.1726335436 0.0255851578 -0.1496757716 -0.1509062946 0.0901986137 -0.1191831380 0.1714735031 -0.0878747553 0.0777122229 0.0021493025 0.3861326873 0.2021317631 0.0483511314 -0.1986440867 0.0392190069 0.3432259858 0.4909657836 -0.2562012076 -0.0422799587 -0.0632892102 0.2351575643 -0.0353165083 0.1607739329 0.0543770455 -0.3255447447 0.0544956401 0.1630770117 0.1146266907 -0.0874951929 0.1295529753 0.1946212798 -0.2984539270 -0.3501580954 -0.2332953513 -0.1301921010 -0.0116622746 0.3607334197 0.1762052029 -0.3436427414 0.3560961485 -0.0048007532 0.3789419830 0.3566845953 0.2784883082 0.0257050302 0.0038825418 -0.1686093062 0.2153207660 -0.5291591287 -0.0068749674 -0.0303601678 0.2676390707 0.2180119008 -0.1248301119 -0.2134605348 0.1123635992 0.0448655784 -0.1353512257 0.0237061121 0.1168996096 0.2194448411 -0.3155993819 -0.1188263670 0.0333944485 -0.2315488905 0.2480647415 0.1534624547 -0.0022982359 0.0936806798 -0.0025927145 -0.0065818015 -0.1970704198 0.1800352633 -0.1637267023 -0.1461861879 -0.1892497540 0.0201343708 0.1216445640 -0.1481884718 0.1078282520 0.0135125266 -0.3182888627 -0.4095825553 -0.0176971480 0.0890386403 -0.1999858916 -0.1041681394 -0.2474567145 0.2176003605 0.0080106920 -0.2936933339 0.3144297600 0.1232960299 0.3087077439 0.0950325876 -0.1536417454 -0.1901315302 0.4517274201 0.3465487063 -0.1482252181 0.0597738288 0.1876675189 -0.3028974235 -0.0696425214 0.2046136409 0.1167476922 0.0331530124 -0.3198678792 0.0634941012 0.1079810560 -0.0343685150 0.2563698292 0.2300384492 -0.1687814742 0.2715811729 0.3333519697 -0.1082990617 0.1307952702 0.0000321791 -0.1822420955 -0.1785588264 -0.3390917182 0.3685021996 -0.3714749813 -0.2302504778 -0.0067191864 0.2307468206 -0.0260763913 -0.1272744685 -0.1889687479 -0.0594306923 0.0461274050 0.0508467816 -0.0706165060 -0.2280125320 -0.0308958907 0.3717915118 -0.5692639947 -0.2781415880 0.0778912157 -0.1941627115 0.2405794710 -0.1045006886 -0.5241872668 0.0386354402 0.1815862507 0.5923990011 -0.0975442752 0.0818247497 0.1925387233 -0.3073556721 -0.1092301980 0.0641023815 -0.1576094478 -0.0339915715 -0.1092731878 -0.0170863215 -0.1436701715 0.1413128376 -0.2881586850 0.0492341667 -0.0621099547 0.0094464961 0.2173838764 0.2987462282 0.2179659754 -0.2799170315 -0.0942080989 0.0285529811 0.0494282395 0.2078855485 0.2756810188 -0.2493082136 -0.3074266016 0.0500933528 0.1399374008 -0.3101302087 0.0372430533 -0.0683975816 0.0099586509 -0.1780577898 0.0625699759 -0.4175549448 -0.2010718733 0.0554446205 0.2848494351 0.2593656778 0.0843156427 -0.2692072392 -0.2776279151 -0.3526454568 0.6292297244 -0.1063682213 0.0356062986 -0.4593114555 -0.0522533767 0.1004447639 0.3253389895 -0.0018318300 -0.3119809031 -0.0240916070 0.0454636738 0.2871010005 0.2047875375 -0.0597280003 0.2678531110 -0.2360766530 0.2507893145 0.1058214977 0.1298200637 0.0159527007 -0.0606764257 0.1504766047 0.2239589989 0.0163540281 0.1060668007 -0.0554939546 -0.2962585092 -0.0528047457 -0.1130959690 0.0778286159 0.0373577401 0.2363809943 0.0995768756 -0.1874122322 0.1437350810 0.0216077846 -0.2583949864 0.4255510569 -0.3518190086 -0.0622754171 0.2513462603 -0.2765313983 0.4869402349 0.1107673198 -0.2648424804 0.0254354160 -0.0207219627 -0.2817962766 -0.1727692336 -0.1343957782 -0.2356117666 0.0061923102 0.0691492185 0.1715885997 0.2188158780 0.0963054895 0.0959189087 0.0487856343 0.1063590348 -0.1822325885 0.1152950749 -0.1700468063 0.1035451517 -0.2411138117 0.4851699471 0.5522589087 0.1795465499 0.0243118666 -0.1409051716 -0.0916481912 -0.1877061874 -0.2841935456 0.4469114840 0.1185593456 0.5267882943 0.0290681925 0.0822639689 -0.0500307344 -0.3385531008 -0.2024243027 -0.0291854888 0.0846271887 -0.2436318398 -0.1285432726 -0.3954326212 -0.0659545809 0.1124336272 -0.0140278265 0.1747898459 -0.0045740874 -0.2852124870 -0.5548447967 -0.1810757220 -0.3439276814 -0.2930097878 -0.0907143205 -0.1774098426 0.1736584604 0.2928404510 0.0313146412 0.0897932425 -0.1120924428 -0.2516294122 -0.1967810392 -0.0343957543 -0.1363081336 -0.2463061959 0.2676184475 0.2195023596 -0.2467263788 -0.1467866600 0.1401607990 0.0242143646 0.5291213989 0.1990292519 -0.1872886270 0.1693609208 -0.1915659308 -0.2815031111 -0.0101434439 -0.2469902188 0.1926379949 -0.3234263361 -0.1734393984 -0.1421835870 -0.2218479663 0.0298358984 -0.3773753345 -0.0307038426 -0.2969995141 -0.2723827660 0.1973331422 0.0769905224 0.1913029850 -0.4207219481 0.0412648395 0.1112035960 -0.3328767419 0.1327739060 0.0643163174 0.1372068673 0.1076066941 -0.2311230898 0.0489931144 -0.2662053108 0.1490107626 -0.5519032478 -0.3270920515 -0.0197381005 -0.2176079750 0.0701031983 -0.1901917905 0.1067381501 -0.0754244998 0.1574123204 0.1445582807 0.2965099216 0.1311974674 0.0778603256 -0.0659525692 -0.1586648971 -0.0804299191 0.6697801352 0.1869558245 0.2757209539 0.1954261065 0.1164561138 0.0237302352 -0.0924246311 0.1280957758 0.1361680180 0.0445958376 -0.0663852617 0.1025104374 -0.0633510277 -0.2127473950 -0.0054319873 -0.1890137345 0.0916572586 0.0622801036 -0.2309758514
Anxiety_(Nervousness) 0.0826304182 -0.2756257355 0.1431595832 -0.2210564613 0.4131338894 -0.1141342893 0.0346974246 0.0494963787 -0.2716074586 -0.0279767811 0.0698627755 -0.0215304680 0.1671960354 0.2476622611 0.0592658557 0.1455090791 -0.5292994976 -0.3764603436 0.1283695847 -0.1364512146 -0.2854503095 0.1861093044 -0.4035221040 -0.2630866170 0.1987464577 0.1056300029 -0.0984141752 -0.2689016759 -0.1667857319 -0.1463857442 0.5635072589 -0.1365058124 -0.0211784635 -0.0873948783 -0.4030825496 0.0661390722 -0.4152777791 0.0305075385 0.0246860385 0.1248421669 -0.2292228490 -0.1091130376 0.2192978114 -0.1869091243 -0.0125363301 -0.0139990151 -0.2342799455 0.0424852371 0.5029227734 -0.5471877456 -0.0451702140 0.1188677326 -0.0435784124 0.0860804096 0.0494894758 0.2681861818 0.1130952835 -0.3057391346 0.2558521628 -0.3919735253 -0.0906743556 0.3191396594 0.3348772824 -0.1102142334 -0.0463324301 0.2228104323 -0.0644196272 -0.2459382862 0.1264131665 -0.2500565052 0.0068264813 -0.0117639164 0.0664610863 -0.0434562154 -0.0511090793 0.1843757331 0.1119060665 0.1898341328 -0.3186032176 0.1030207351 -0.1570304185 0.3164134026 0.1000328213 -0.2397886068 0.0702773109 -0.2472476065 0.2974751294 -0.1477903873 0.1499804705 0.2593800128 -0.1463639587 0.0711658597 -0.1391621381 0.1207368895 0.2692308426 -0.0677190647 -0.2661556602 -0.1942483485 -0.0325657614 -0.3417396843 -0.2360529900 -0.2910166085 -0.3224008679 -0.2892561853 -0.0566394292 0.0930598602 0.1375135332 -0.2036745101 -0.2139399350 -0.0871763751 -0.0445030518 -0.1278416961 0.2009494603 -0.0852373168 0.2228932679 -0.0167999230 -0.3434338868 -0.0862694532 0.1428449452 -0.0013272843 -0.1329127252 -0.1426158398 -0.0685081482 -0.0424039178 -0.2704244256 -0.0799587592 -0.2031735182 0.0802246407 0.0999163911 0.3436759114 -0.1414904892 -0.2149605304 -0.1358560473 -0.0960121602 0.1701704413 0.2539108098 0.0169670973 -0.1621606350 0.1277444065 0.1508272439 0.1657763869 0.2072164863 -0.1221304685 0.0984935984 0.1461357921 -0.2618567050 -0.1861747652 0.3784003854 -0.1033658609 -0.1248424277 -0.2444058359 0.0670009404 -0.2880571485 -0.0320776664 -0.0066860719 -0.0070104809 -0.2821186185 -0.0128287058 0.1550233066 -0.1812877506 -0.0518282838 0.0545831397 -0.0327346101 0.4107474685 0.0259390641 -0.0526655428 -0.1532969028 0.1337754577 -0.1553315669 0.1618025601 0.0858545825 -0.5864651799 -0.2326031923 0.0450849012 -0.0621961541 0.1922890246 -0.0150612937 0.0575532950 0.3191083074 0.0989308804 -0.9807358980 -0.0274789575 -0.1454349905 0.2877342403 -0.0346568413 0.3858292699 0.1233423352 0.1076430157 -0.1197110340 0.3699395955 -0.3149802685 0.4106312394 -0.1771630198 -0.0906486735 0.0565451458 -0.1299228966 0.0881911889 0.2467935085 -0.0547209494 -0.1330922693 0.1116266698 0.0207517184 0.0906284899 -0.0054732882 -0.2504037023 0.0614120029 -0.0720367581 -0.2919504046 -0.2563907802 -0.3564794958 0.0602252781 -0.1702139378 -0.0807107612 -0.3345305920 0.4120042622 0.2004124373 0.2935399413 -0.0605693161 -0.0126715917 -0.1818487346 -0.1228421181 0.1652484089 0.0309890639 -0.2884030938 0.1060272381 0.4138987958 0.2791558504 -0.2405290902 0.2995207608 -0.3075952530 0.1716707498 -0.1297387481 -0.3514606059 -0.0428207517 0.2747918069 0.4282172024 0.0423105881 0.1851136982 0.2906773686 -0.3955239356 -0.1875272095 0.2591920197 -0.0600567795 0.0766428486 0.0817414001 0.2919268906 -0.0700397640 -0.3988067210 -0.2340100706 0.1174029335 -0.1485337466 0.3290498853 -0.0003313533 0.1335953027 -0.0934344158 -0.0919258222 -0.1295984685 -0.1701242030 -0.0575649627 0.2955378592 0.3485924304 -0.1075985283 -0.1080453172 0.0951263383 -0.0466466732 0.1838663667 -0.6882892251 0.0918925032 -0.1265727133 -0.1673615873 -0.0796529502 0.0374005251 0.1757266372 0.0425877236 -0.4627455771 -0.0689764470 0.2278565466 0.2968440354 -0.1745885462 -0.1375765949 -0.1014496610 -0.0090559972 -0.0646115392 0.2100174129 0.3847795427 -0.0571014211 0.3059843183 0.3113373816 0.1032024696 0.1027009711 0.2092418820 -0.1992134154 -0.0469131358 -0.2828973830 0.5550740361 0.1846815646 0.1054936722 0.1179067120 0.1204792783 -0.0837188512 -0.1490461379 0.2968849838 -0.0540912487 -0.4311338961 0.5658634305 0.2198675871 -0.1161022559 0.1865500510 -7.1250491142 -0.2244950831 0.1588743031 0.0093616107 0.3645397127 -0.3793296814 0.3545934856 -0.2060544044 -0.2639191747 -0.0612226240 -0.0796856657 -0.2553218305 -0.0272374935 0.2313637733 0.0472173020 -0.2217021137 -0.3411920071 -0.1307529658 -0.0089724958 0.3344691396 -0.1269367635 -0.0111407135 0.0578343160 0.1405568868 -0.1083307490 0.1318832040 0.0490410030 -0.0409887023 0.0229030382 0.2978333533 -0.4258265495 -0.1455750316 -0.1332090795 1.1682320833 -0.1033115312 -0.4606616199 0.2617808282 -0.2931410670 0.0844246000 0.7309157252 -0.4741771817 -0.3419720829 -0.0398956202 0.2107323408 0.0504698157 0.0094412016 0.2334512025 0.0911949277 -0.1689442545 -0.0820310488 0.0645957440 -0.0992611498 -0.1157310978 -0.1906802505 0.1979725659 0.0587897375 0.1790329516 -0.0500825383 -0.0287592392 0.0216200780 0.0851021558 0.0555365942 -0.1524539143 -0.3057546020 -0.0804654583 -0.1971355975 -0.6218204498 -0.0301011913 0.3542328775 0.0089761615 -0.0127978008 -0.2784519196 0.1714042723 -1.9886533022 -0.3491981626 0.2619488835 -0.1169748157 0.0427919030 0.2802163064 0.0870176703 -0.0891971067 0.2111748010 -0.0614701211 0.0449066535 -0.1153894514 0.1163796857 -0.0221380852 -0.2238507420 -0.2185087502 0.4024725258 0.0763618127 0.0479727201 -0.0490292907 -0.0944574028 0.2658370435 -0.0603479706 -0.0770163536 -0.1835196912 0.1485346705 0.1446436942 0.1418597996 -0.1752086133 0.0592439473 0.4241614938 0.2556957603 0.0024807479 0.0194264408 -0.1073291972 0.4821793735 0.1002281830 0.3844884336 0.0426081084 -0.3711839318 0.0542895310 -0.2692141831 -0.1069102958 -0.4095637500 0.0530438125 0.2342021614 0.3368716240 -0.4326446056 0.0505197644 -0.1380897015 0.0666042939 -0.0030541364 -0.0041895518 -0.3720951676 -0.1474862993 0.0655302852 0.0534948222 0.0326533839 -0.2959725857 0.1247970685 -0.2505446970 0.1133845001 0.3169195354 -0.2817161083 0.1807837337 -0.1493477076 0.0816868320 0.3153707385 0.0334276408 0.1740165800 0.0249470863 -0.2161670029 -0.0589989163 0.1490818113 0.0059162229 0.1368496865 0.2665299475 0.2098164409 -0.0487094931 0.0523479991 -0.5186451674 -0.1658204049 -0.1062386259 0.1774474382 -0.1889184266 0.1064926460 -0.0732723251 -0.0269736201 -0.1333204210 -0.2929681242 -0.0510011315 0.2201399952 0.0397744067 -0.2116217762 -0.0907483548 -0.0741826445 -0.3459291458 -0.2798186243 0.1450140923 0.0751611963 0.0243707299 -0.0448642299 -0.3033213317 0.0232070219 -0.2381382734 -0.0105511611 0.4182665348 -0.1510578841 0.2234131992 -0.1688441187 -0.3317411840 -0.1001282185 0.5696319342 0.0003487394 0.1666032225 0.1539023966 0.1059100702 -0.2683905959 0.2815254331 0.0509703383 -0.1353617609 -0.0880959034 -0.2310715765 -0.1091956869 0.2829347849 -0.1931029111 0.1153659597 0.2129984945 -0.3731918931 0.1112900376 0.0739825368 -0.1927410513 -0.0428217277 0.2448897362 -0.2990401685 -0.0176978540 -0.0111434329 -0.1090992615 -0.3278169632 0.1098368391 -0.1883011907 0.1076576561 -0.3356796801 -0.2750690579 -0.2353652567 -0.2140884548 0.1734829694 -0.0086069210 -0.0487286486 -0.2221055180 -0.0423094146 -0.3123988509 -0.4478206933 -0.0552298240 -0.0106405150 -0.3319073021 -0.0096667176 0.2630591691 -0.9842575788 0.1613777727 -0.0443468057 0.2395538390 -0.1135870591 0.1727115363 0.5154035091 -0.0842076167 -0.0743717998 0.2069599479 -0.3719696105 -0.2154791504 -0.2415721416 -0.0638990253 0.2617262900 -0.2036814541 -0.4858214557 -0.2078904957 -0.2080259174 0.2026005238 -0.1067519784 0.0549610481 0.0271644890 0.0760218129 -0.3378336430 0.1642090976 0.1660932302 -0.1665118635 -0.0986506566 -0.3852182329 0.2750235498 -0.1364928037 0.0720022470 -0.2878126800 -0.0351543874 0.0878382102 0.0973825902 -0.2527832687 0.1151004881 -0.1285796911 -0.2772457600 -0.0245183986 0.1809355021 0.3822736442 0.0668714792 -0.1326771528 -0.3613924086 -0.0952790454 -0.1403401196 0.0667751133 0.2482012659 -0.0099569084 0.0111269252 0.1330915689 0.0780355558 -0.0043436051 -0.2787443995 -0.2044464648 0.2745152414 0.2456975132 -0.3017926216 0.2826580405 0.2042892128 -0.3344667852 0.3952014446 -0.0899737254 0.3074843585 0.1617392749 -0.2711941898 -0.1416342407 0.0754453540 0.1076736078 0.1942885816 0.2067314088 -0.1239934489 -0.0621927567 -0.2557080984 -0.1484141052 0.1647336930 0.1386063844 -0.2139456272 0.1714366972 0.2013473809 -0.0322668329 -0.0309152696 0.3685787618 -0.2942443192 0.1427620500 0.1598398685 -0.2271283567 0.2445253283 0.2128412277 0.0134423478 0.3383724093 -0.0633956939 -0.0142327035 -0.0710295662 0.3333281875 0.0620909669 0.0000684996 0.3856234848 0.0876493528 0.0560894869 0.3840393424 -0.1889678091 0.6339343786 0.2021704763 -0.2556600869 0.1734944731 0.0641547367 -0.2360150665 -0.4370460510 0.3627231419 -0.0719683021 0.1495046318 0.2950736880 -0.0572340526 0.2892680764 0.0078167608 -0.0064129471 0.2234981358 0.2301816493 0.5040432215 0.2927740216 0.2325049192 -0.1864776462 0.1843322515 0.2736200392 0.0004351065 0.0004562635 -0.1749284118 0.1614159793 -0.3190684617 0.2205773741 -0.1457166523 -0.0866640136 0.2306610048 -0.1658047140 -0.2521491945 -0.3544071317 -0.3798424304 0.1336204559 0.0415553413 -0.0433746874 -0.3140168190 0.2222000808 -0.1571969539 0.0545807667 -0.3043867946 -0.2003643662 0.5567146540 0.0917238072 -0.0158090368 0.0339773409 -0.1946485043 0.0765461847 -0.0554456972 -0.1158272251 -0.1452978998 -0.0627948791 0.1899353266 0.0020969617 0.1553356498 -0.1386925131 0.0581777506 -0.1626662016 -0.5361396074 0.0073380917 0.0983826518 0.0892261788 0.1290868372 0.0057770871 0.0316653326 -0.2986237705 0.1353750229 -0.1466107517 0.0406972878 -0.5896424651 -0.2970720828 -0.1760592014 0.0817014351 0.2750398815 0.3022475243 -0.2714052200 0.1610273570 -0.2117747962 0.3406855762 0.1850528717 -0.1691447943 -0.1491689235 0.0191373620 -0.1336506158 0.2434280217 0.1436224878 -0.6044866443 -0.2977056503 0.1111679599 -0.2184664309 -0.0751047283 -0.1093225926 -0.0110866874 -0.1447485536 0.1420585215 0.0092086094 0.3193042278 0.1772359908 0.2329527438 -0.2158966959 0.0737311915 0.2695303857 0.4476771355 -0.1263255477 0.4387342632 -0.0761246681 -0.0922430605 0.1117508411 -0.1479787976 0.1998425573 0.0079176407 0.1055424586 -0.0496078357 0.2040499002 -0.0414167866 0.0044573522 0.0834505036 -0.0476871990 -0.1274363548 -0.0017874528 0.1417093426
Arm_ache_or_pain -0.1764245480 -0.1554462314 0.0013872919 -0.2561409771 0.3120198548 -0.1255587935 -0.2105956674 0.4829660952 -0.3770958185 -0.0680602118 -0.0496310331 0.2748828232 0.4242492020 0.2779230773 -0.0944630206 0.4081417620 -0.2186217457 0.0321415812 -0.1590598673 -0.0824167058 -0.2108752728 0.2056529522 -0.3717360795 0.0452207066 0.2032576799 0.0123216808 0.2055816054 -0.1946009248 -0.0435501896 -0.4303683043 0.3252878189 0.0547899045 0.0087818215 0.1125533357 -0.2934744656 0.3360072374 -0.0139673194 0.2095817327 0.0242830757 0.3090760410 -0.0880005956 -0.2510014474 0.1971101761 -0.0899671689 0.0238572508 0.0829025432 0.0533798188 0.2580068409 -0.1963199824 -0.2133762836 0.0418450832 0.0848163292 -0.3276230395 -0.3201821744 0.3128021359 0.2738379836 0.2757693827 -0.1794889718 0.0210589394 -0.0743455067 -0.0477543734 0.1045954898 0.4217440784 0.1976773739 0.0611185618 0.2053509206 -0.1435001940 -0.2127433866 -0.0693321526 -0.1370353252 -0.0705114380 0.0257077236 -0.1155022681 0.0684851333 0.2227829844 0.2752443254 0.1804177761 0.0531448275 -0.3905095756 -0.1228555664 0.1046228111 0.2682106197 0.1705241054 -0.1623147875 -0.1382241994 -0.2170543224 0.2058036923 -0.1662898511 0.5401827693 0.4140794277 0.1150591075 0.2790490687 -0.0640826747 -0.0084956270 -0.0179305021 -0.3793079555 -0.3030731082 -0.1539808959 -0.1838792711 -0.0617420077 0.2427752763 -0.6057618856 -0.1618730873 0.0162517559 -0.2032778263 -0.0206040386 0.1024879143 -0.1929797381 -0.3198757172 -0.1821417958 0.0288134068 -0.0595344417 0.1150282994 0.0799474195 -0.0825413316 -0.2311530113 -0.0090823630 -0.2407810837 -0.1192699298 -0.2480319738 -0.1682250053 -0.0934489295 0.0915579200 -0.0177389625 -0.3175688982 0.0546231270 -0.2632824183 0.0447795838 -0.0151635697 -0.0138699850 -0.1255332679 -0.1760808825 -0.0859500170 -0.0273990277 0.3751603663 0.0833155587 -0.4453032911 -0.1410710812 -0.0764338896 -0.0416165926 -0.1013889685 0.3518412113 -0.1401797235 0.0692713708 0.1173546612 -0.4339772463 0.0853585079 -0.0811421722 0.1307630986 0.0787388459 0.2332100719 0.2173085660 -0.0030550293 -0.3090299666 -0.1511665732 -0.1231267974 -0.0613730215 -0.3390773237 -0.0624774210 -0.2966336906 -0.0406575538 0.1906560212 -0.0062383194 0.3874718249 -0.0751685649 -0.0227216128 0.0419110954 -0.1266509145 -0.1762912273 0.0765646920 -0.2417729646 -0.5188415647 0.0303778630 0.4626909494 -0.0936251059 0.2336475998 0.0005684972 -0.3240111768 0.2590638101 0.1730029136 -1.0710023642 0.3016128838 0.1045169905 0.2946944535 -0.1535202563 0.3349417746 0.1672353148 -0.2225326449 -0.2296704203 -0.0373135097 -0.1736221313 0.1415309161 -0.2054674476 -0.1238025948 0.1839401722 -0.0882069767 -0.2259957641 0.2622286379 -0.0735545233 -0.2899488807 -0.1295966357 0.0037282777 0.1345542073 0.2098224908 -0.2302737087 0.1283416152 -0.2301322073 -0.0250634272 -0.3087708950 -0.1620063931 -0.0622727685 0.0334488340 -0.1849309951 0.1721197963 0.0390340127 0.2772298157 0.5927787423 -0.2220542878 0.1752430648 -0.4321514666 -0.1876512617 0.2394739389 0.1272341460 0.1973729879 -0.1996636838 0.3682179749 -0.2015206665 0.0683485493 -0.0789169520 -0.2263422012 0.2125674635 -0.0299594123 0.0463906825 -0.1738656759 0.1831458956 -0.0485460460 0.3890984952 0.2615551353 -0.0355330147 -0.0442374386 -0.2027993649 0.1721891761 0.2461948544 0.0215546042 0.0938092694 0.2250553221 0.0466353707 -0.3943535388 0.0196035579 -0.0213630348 -0.2157208472 -0.0527010076 -0.3479808569 0.0546505004 0.1970924735 -0.0493649989 -0.0690758973 0.2757274210 -0.0317405015 0.4721851349 0.4025866687 -0.1927739829 -0.2879922688 -0.1636289954 -0.3176720440 0.0147799598 -0.1330639273 0.1823112518 0.3378970325 0.0074093412 -0.2722673714 0.3086600602 0.0107110320 0.1231692508 -0.5468500257 0.2081011981 0.1807422489 0.3513647318 -0.2090275437 -0.2730318010 -0.1093553826 -0.1089767441 0.0283965711 -0.1916881651 0.3341126442 -0.1024210677 0.1709682196 0.6617202163 0.1951838881 0.2160665840 0.1008695737 -0.1379138529 -0.0414196737 -0.1275638491 0.7545221448 0.0061152321 0.4384662807 0.0687158406 0.1567493081 -0.1412108541 -0.0891184583 0.2822594345 0.2836996019 -0.4278678596 0.2838197649 0.0827384666 -0.0215290096 -0.1553609073 -6.2142310143 0.0086188614 0.0049589551 -0.2833355665 -0.1772069335 -0.0814386979 0.3086245358 -0.0675837994 -0.2631102502 -0.2286907285 -0.6194819808 -0.2447459549 -0.0424153470 0.0826703236 0.1003806219 -0.0143715041 0.0353934504 -0.2525690496 -0.0706069991 0.1300626844 -0.1487248093 0.2688730955 0.1811657697 0.0406338423 -0.3915881217 0.2690150142 0.0845476389 -0.2142546773 0.1771178395 0.1802275032 -0.1585938483 -0.1497996747 -0.0822619796 0.8048586845 -0.1051430330 -0.1357570440 -0.0877370238 -0.2159860879 -0.0101882843 0.2005733848 -0.7330711484 -0.1537588984 0.0111781843 0.2683826387 0.0803782269 0.1381830424 0.1340223104 -0.0726708695 -0.1500504464 -0.1898090094 0.1413442343 -0.4993278980 -0.0100005716 -0.2290861160 -0.0385226272 0.2479707599 -0.1217160299 0.2207592726 -0.1442838460 -0.4418109357 0.0192151368 -0.2688341141 -0.3304924667 -0.1780411005 0.0330867209 -0.2376734465 -0.3837397397 -0.4010689259 0.5921013951 -0.1535121053 0.2528920174 -0.3288034499 -0.2332008332 -1.7789548635 -0.1343923509 -0.0725978836 0.0684608296 0.0344479792 0.0461373031 0.1975122094 -0.1891653538 0.1720939875 0.0706172511 0.0009038542 -0.4248627722 0.0053842179 -0.2517200410 -0.4466097355 0.1883316189 0.3036799133 0.2248578221 -0.0955774188 0.1404787749 -0.1850560755 -0.2543507516 -0.3056573570 0.0201155301 -0.3110203743 0.0809800923 0.0102745667 0.1972210556 -0.0760097951 0.0920317098 0.4168568850 0.4029482901 -0.0847872272 -0.2895593047 -0.1861150265 0.1744358987 0.2569973767 0.4871632159 -0.0089396620 -0.2169274241 0.1478086561 0.0345078819 0.0888620019 -0.0288379621 0.1464645118 -0.0733194128 -0.2377592325 -0.5098994374 -0.0905465260 -0.0293443501 -0.1490818709 0.1259444803 0.1753580123 -0.3906665742 -0.0985177532 0.1558545679 0.2200989276 0.2316238135 -0.2536866069 -0.1018659100 0.3163828850 -0.1943330914 0.2704079747 -0.3913176060 -0.0687816665 0.0097052306 0.3020686209 0.1759552211 0.2153839618 0.1750643849 0.2433446199 -0.0297477450 -0.2391221970 -0.2405554503 0.2619810700 -0.1555281579 -0.0087693585 -0.1738328338 -0.2616858482 -0.1020189300 -0.1630674452 0.1604701430 0.5486357808 0.0555856340 -0.3150255680 0.1176741049 0.2316836566 -0.0028483297 -0.0836687312 0.0046978933 0.0140599264 0.0544012375 -0.2283286452 -0.2273333222 -0.1864344329 0.3387571573 -0.3611344397 -0.1740716249 -0.2207815051 0.1560617089 -0.2022992969 -0.5602288842 -0.1694809794 0.0191135332 0.0033888472 -0.0644204691 0.2731805444 0.1605347395 0.1015674472 0.2335712910 -0.2895198464 0.0830240250 0.5147697330 0.4752952754 0.2531860769 0.0293740332 0.1567831635 -0.4409151077 0.3364705741 -0.0551025569 0.1954863518 -0.3080411255 -0.1782641560 -0.0125686442 0.2710609138 -0.1720803529 0.1367119700 0.0806531161 -0.0728621110 0.1961901039 0.2597607076 -0.1738328785 0.0906236395 -0.0276108477 0.0886530876 -0.3544386625 -0.1829317361 -0.1804646999 -0.6439219713 0.3262838423 0.1609122157 0.3590035141 -0.0463541932 -0.3389754593 -0.1479195654 -0.2038308382 0.1396949440 -0.0850772560 0.0273252204 -0.3435911238 -0.0212211665 -0.1877018362 -0.7402553558 0.0702008605 0.1378128678 -0.0072433851 0.1082385555 0.2516514361 -0.7864670157 -0.0909567699 0.0437151045 0.7086591721 -0.0976709425 0.1198491678 0.0674759671 0.0367830247 -0.0478462428 0.0889151692 -0.2948460877 -0.2724774480 -0.2656677067 -0.0034467562 -0.1079328433 0.1467186064 -0.4832588136 -0.3451195061 0.0625173822 0.0219551101 0.3231571615 -0.2793523669 0.1981882304 -0.0826634541 -0.0470653176 0.0213981494 0.4368064702 -0.0374598391 -0.0735296905 -0.1120629385 -0.0919710472 -0.1045165583 0.2261649817 -0.5297847390 -0.0031946220 0.1326121241 0.1333072037 -0.1004198492 0.4392499626 -0.1746810824 -0.3815548420 0.2572986186 0.2072536945 0.1985893250 0.0839758143 -0.1387722492 -0.0882957280 -0.2324201465 0.0283104796 -0.0009942803 -0.0022606275 0.0651048794 -0.1883713752 0.1990126967 0.4184894860 0.2633145750 -0.0684612319 0.0770031437 0.3884781897 0.3871580660 -0.0219657104 0.1678748578 0.0467253625 -0.4188794196 0.4664664567 0.2335911393 0.4722098410 0.0352814086 -0.2341572493 -0.2736070752 0.4971756637 -0.0786568597 0.0304723252 -0.1157037541 -0.0790465996 -0.0109196538 -0.2325271517 -0.1373503059 0.1418704838 -0.0587479174 -0.1833881289 -0.0837282762 0.1448756456 0.1363866478 -0.2031182796 0.1777068377 -0.2927317321 0.1180875897 0.0189893767 -0.2014272362 0.1575501412 0.2226387411 -0.1810065657 0.0662867054 0.0398066007 0.1781306416 -0.2768087089 -0.0546243973 -0.1342803985 -0.1453900188 -0.0957717374 0.1633561701 0.2350435108 0.1157740057 0.0695232078 0.4983446598 -0.0787208006 -0.2089592367 0.0889186859 -0.1610777974 0.1673437804 -0.1237989888 0.1319078207 0.0506935231 0.0180360936 0.0922988728 -0.0616293363 0.1442859769 -0.0914887488 -0.0761503354 0.3670794964 0.2419177145 0.4259632528 0.4127281606 0.0245448798 -0.0712995529 0.1052084267 0.2614013851 0.4636379480 -0.0626922771 -0.3354413509 -0.1035422310 -0.2040037513 -0.1756998897 0.4016062021 0.0209440235 0.3103365004 -0.1895518154 -0.1145203933 -0.5421141982 -0.0085109128 -0.1188523769 -0.0189210642 -0.2348732203 -0.2841174304 0.2383088320 -0.1545950025 0.0130468691 -0.1981492043 -0.1458986253 -0.0186434574 0.0638876557 -0.0160611384 0.0786640123 -0.3141621649 0.0580831282 0.1773175150 -0.2103448510 -0.0937636793 0.0145094031 0.0290780645 0.3923432827 0.2120431066 0.1469127387 -0.0223768149 -0.4899119437 -0.2331823260 -0.0680874661 0.1684527993 0.3057765663 -0.4667841494 0.0701996163 -0.0915001035 -0.1743029952 0.3127126098 -0.0884421095 0.1129441485 -0.3606279790 -0.2625548542 -0.1333965808 0.1577921361 0.2662819624 -0.2698599100 0.0473157763 -0.0090701459 -0.1066714749 -0.2212276012 -0.0914352909 -0.2558199763 0.2809806764 -0.0376439206 -0.1383420825 0.0365053900 0.3713023365 -1.6913299561 -0.1772444099 -0.0361546651 0.1639865190 -0.1962057799 -0.2427252978 0.1492673308 -0.1519671977 0.0597357340 -0.1287168115 -0.0270059109 0.0861702040 0.2199983746 -0.1335775703 -0.0630335137 0.2719689012 0.0887746289 -0.1561213285 0.5517452359 0.2334349155 0.2119537443 -0.2627597749 -0.1679265946 0.0319913179 0.1856778264 0.2228331417 0.1138887033 0.3208492994 -0.0834637880 -0.0593716353 -0.1223611534 -0.0837064907 -0.0014623186 -0.0414197892 0.0010984553
Back_ache_or_pain -0.0526984334 -0.2020090073 -0.0155174984 -0.1500640661 0.3691307008 -0.1618168354 -0.1349152178 0.5280008912 -0.2927176654 -0.1367867142 -0.0445377938 0.3720870316 0.3414058387 0.3451366425 0.0088818967 0.5376321673 -0.2105746716 -0.0950857624 -0.1166973785 -0.1025567055 -0.3675869703 0.2801325619 -0.4696559906 -0.1448374838 0.1747246534 -0.1988212317 0.1370383948 -0.1503872573 -0.0831466094 -0.3755049706 0.3531127870 0.1493203342 -0.0823203847 0.0639085397 -0.4786897004 0.2097475678 0.0299001206 0.1979059130 0.0269544721 0.3216079772 -0.4258255661 -0.2416319400 0.2698330581 -0.0524415933 -0.0330749601 0.1597634852 -0.0063382112 0.3139573634 -0.1412588507 -0.1334733814 0.2206378579 0.2335586101 -0.2085338980 -0.1176532134 0.2908487320 0.2457259148 0.2177374214 -0.2812184989 0.0469919033 -0.0578134619 -0.0495498590 0.0583909340 0.2132688314 0.2976852655 0.1657073498 0.1315557808 -0.1748799235 -0.1559680253 -0.1777467281 -0.0067336052 -0.2388880998 -0.1783248931 -0.1810577363 0.0594892651 0.1306385547 0.2726275921 0.2206223458 0.1176530495 -0.4786837101 -0.1328357011 0.0129119931 0.3222260773 0.2162211686 -0.2788214386 -0.2236964256 -0.0535468645 0.2827641666 -0.1158715189 0.5468028188 0.1586761326 0.0313948728 0.3422674835 -0.1499474794 -0.0279130191 -0.0248236079 -0.3799000680 -0.2233188003 -0.1462815404 -0.1134544089 -0.0719308630 0.0881109536 -0.6129745841 -0.2945427299 -0.0618167110 -0.1319256574 0.0393336304 0.0754497275 -0.1595983356 -0.2658680379 -0.1500215232 -0.0264133420 -0.1464441866 0.0574783087 -0.0198154263 -0.1103959978 -0.2289247364 -0.1993282288 -0.2219606489 -0.0586692244 -0.2595502436 -0.2833138108 -0.2065760493 0.0792028010 0.0489610247 -0.2281299382 0.1121170595 -0.1996289939 -0.0295660701 -0.0990674794 0.1276075989 -0.0927183256 -0.2847284377 -0.0211234298 -0.0019498616 0.2652995884 -0.0597888045 -0.3997468650 0.0197701883 -0.0473380089 -0.0592212044 -0.1727100462 0.3246492445 -0.2464683801 -0.0804641172 0.3294182122 -0.5656519532 -0.0001424247 0.0715980828 0.1693608016 0.1750904471 0.0472042672 0.2538392842 -0.0535241850 -0.3972732723 -0.2286828309 -0.1711445302 -0.1185841262 -0.3647408485 0.1546671540 -0.3667479753 -0.1054253057 0.2739397883 -0.0809143260 0.3111579716 -0.0701646432 -0.0471211374 0.0102170678 -0.1256328672 -0.1171539798 0.0379738025 -0.4127126634 -0.5372681022 -0.1114758626 0.4809055328 0.0441216268 0.2196955085 0.1466344297 -0.2891425490 0.3161948621 0.2314532250 -1.0422148705 0.1110387444 0.0663457811 0.0680717602 -0.1388008744 0.2894455791 0.2289287597 -0.2645558417 -0.0279275198 0.0523116291 -0.2041716427 0.1683175564 -0.2444239855 -0.1030334234 0.2694632709 -0.0442374535 -0.1971880645 0.2517589927 -0.1474500448 -0.2783776820 -0.1729341745 -0.0516661964 0.1950746030 -0.0307590868 -0.2496264726 0.2099200338 -0.2916094363 -0.0322227851 -0.2713892460 -0.1688330024 -0.2435346991 -0.0242959466 -0.1439549178 0.1575993448 -0.0062244534 0.3088124692 0.4581478834 -0.2278271168 0.0964609757 -0.4385701716 -0.1167880967 0.1009704843 0.0752962455 0.1871102303 -0.2610557973 0.2651423812 -0.0587073863 0.0393591188 -0.1715515256 -0.1761152893 0.2686327100 0.1126953140 0.2591532767 -0.2067010254 0.0489900708 0.1550752074 0.2745603919 0.1519006342 0.0124905603 -0.1352180094 -0.2054681331 0.1584579498 0.2666934133 0.0947333649 0.1156813800 0.2049984187 0.0782681182 -0.4176548719 -0.0740525499 0.1403013319 -0.2710173428 0.0601153634 -0.3413699865 0.1443450004 0.0363243409 -0.0373715796 -0.1162988022 0.2884238362 -0.2251430303 0.3902255297 0.3836437762 -0.2562411726 -0.3262430429 -0.1241874695 -0.2373857051 0.0674641728 -0.1118090749 0.2564022839 0.2239108086 0.2080381960 -0.3912499845 0.2868967652 -0.0278189126 0.2168154120 -0.6351705790 0.0312264394 0.2457155138 0.3814305961 -0.2109518051 -0.1458507627 -0.1332980841 -0.0685125664 -0.1455304623 -0.0245104562 0.2845083475 -0.0773013458 0.1789365560 0.6704204082 0.2390751988 0.1722864062 0.0884594992 -0.0425931513 -0.0719025359 -0.1381623596 0.6983916759 -0.1144967601 0.3189428747 0.0797097161 0.0409353487 -0.2158670872 0.0345433988 0.2947605550 0.2212999016 -0.4460757077 0.0950687528 0.0023630455 -0.1413010657 -0.1929274201 -5.6721158028 -0.0144222854 -0.0051956917 -0.3207799792 -0.1329028457 -0.0570780970 0.3044660389 -0.0915209278 -0.1966225356 -0.2661462724 -0.4052079916 -0.1671653539 -0.0874661580 0.2505336106 -0.0118851690 0.0230900254 -0.0237348694 -0.1527481675 -0.0023368283 0.1974014491 -0.0822095349 0.1827998757 0.1520523429 -0.0060154698 -0.3741970062 0.5622351766 0.1501447856 -0.1524196863 0.2221357226 0.2354900986 -0.0128820697 -0.2629712522 -0.1409822702 1.1685490608 -0.1258304864 -0.1959420294 -0.0300277565 -0.0500366688 0.0844446421 0.4228658676 -0.8002566695 -0.0603243224 -0.0093659982 0.1885827780 0.0727166459 0.1105753556 0.1745463759 -0.0358975790 -0.1533495635 -0.1085706279 0.0406056307 -0.4530362785 -0.1068989560 -0.2445263863 0.1478344947 0.2426327318 -0.0442978293 0.4007250369 -0.2029616833 -0.6395230889 0.0247687642 -0.2262323946 -0.4864711761 -0.2658291757 0.0258425158 -0.2411693782 -0.4890843630 -0.2690009177 0.4405405819 -0.1187656522 0.3689372838 -0.4112372398 -0.0040108673 -1.7891534567 -0.3355879784 -0.0750296935 0.0425243713 0.0544357449 0.1144942865 0.1938320249 -0.0214327630 0.1723265201 0.0419774242 0.0594893731 -0.4342885911 -0.1659528762 -0.1562921554 -0.4675289690 0.1965212822 0.2052486986 0.2836875618 -0.2300325036 0.1255810857 -0.2028537840 -0.1394173801 -0.2781304419 0.0750660971 -0.1749215573 0.0109843491 0.0240876283 0.3008824885 -0.2370302081 0.1365851164 0.4874078333 0.5353746414 -0.1887698621 -0.1502914280 -0.1214884296 0.3778275251 0.2049572915 0.5378282070 -0.0225498509 -0.2846320570 0.1423193961 -0.1211000308 0.0604342222 -0.1368744671 0.0961526856 0.0267053396 -0.1102046967 -0.4145439863 -0.0147660123 0.0205994789 -0.1643004864 0.0594845079 0.2690958083 -0.4040230513 -0.0408522338 0.1518543512 0.2977823317 0.1665798426 -0.2294439673 0.0144803077 0.3423383236 -0.3456579447 0.1862540245 -0.2661857605 -0.0279439744 -0.0892643332 0.4170220792 0.1630139798 0.2661249340 0.1084878370 0.1859068125 0.1973158270 -0.2239310145 -0.2436433882 0.2984725535 -0.1770106405 0.0421534665 -0.2001979798 -0.1864930838 -0.2534812689 -0.0397814065 0.3124037683 0.3139283061 -0.0765930787 -0.1398606747 0.0854604244 -0.0306643192 -0.0393445306 -0.0377553925 0.0853172317 0.1012634113 0.0568105392 -0.1616524905 -0.2044327855 -0.1870089769 0.2973236144 -0.3813066483 -0.2550465763 -0.2570385337 0.2381143719 -0.2820198238 -0.5319208503 -0.2380590290 0.0588775724 0.0215003416 0.1591542810 0.2820183337 0.1273582578 0.1506041586 0.2191707045 -0.5317874551 0.1582240909 0.5949723721 0.3879020214 0.2394033074 0.1568425894 0.1477868855 -0.3427422345 0.2190953493 -0.1309645474 0.2094776481 -0.3385057449 -0.2135585546 -0.0142580941 0.0999206528 -0.1308528930 0.0611693561 -0.1151586175 -0.0544173457 0.2718839645 0.3614540994 -0.1818490624 0.0686663315 -0.1259242594 -0.0114188120 -0.2938078344 -0.0156816188 -0.2222263068 -0.6506174207 0.2269668132 0.0493346117 0.3667518795 -0.0872633681 -0.3507095575 -0.1479080915 -0.2134111971 0.1915972233 -0.1924941689 0.0709876865 -0.4144895971 0.1000557318 -0.0911743343 -0.8767307401 -0.0218581837 0.0490777753 0.0456574261 -0.0410585366 0.3302914798 -0.7864429951 -0.0880894959 -0.0474191941 0.7093696594 0.0041300994 0.0959621742 0.0799660385 0.0984500125 -0.0848096684 0.0418254286 -0.3972646892 -0.3940434754 -0.1448488533 0.0201409534 -0.0057474822 0.0011244217 -0.4025922716 -0.3267703354 0.1509294063 0.0108544258 0.2741014659 -0.3620238304 0.2635404766 -0.1701768488 -0.1262215823 -0.0478504598 0.3188623786 -0.0874763653 -0.0129813328 -0.0135861104 -0.0131930681 -0.0134022562 0.2631742060 -0.5074751377 -0.0648505613 0.2759917676 0.2195915729 0.0175561104 0.3691771328 -0.4502505064 -0.2856389582 0.2181788832 0.2578082979 0.1163771152 0.1069502160 -0.2310139090 -0.2376756221 -0.1935375929 0.1962489039 -0.0911431313 0.0509697199 0.0836561546 -0.1706248671 0.3479193747 0.2968996465 0.2575614452 -0.0826519728 0.0635328442 0.3247042596 0.4663958549 -0.0363056324 0.1723961085 0.0330788530 -0.4227584302 0.4270679057 0.1265294552 0.4157102108 -0.0736090615 -0.1361152977 -0.3437056541 0.5543076396 0.0406292193 0.1002161577 -0.1045288369 -0.2058577538 -0.0483172238 -0.3607407808 -0.0510984771 0.2515291870 -0.1529382020 -0.0997559354 -0.0476948433 0.1764425784 0.1805536300 -0.1697511077 0.1441295594 -0.3152990639 0.1345196515 0.0735039935 -0.1149800047 0.2252135277 0.2550559640 -0.0813616738 0.1879512519 0.1785975695 -0.0018915782 -0.2085301727 -0.1590066254 -0.0862721503 -0.2129138857 -0.0751927420 0.1660987884 0.2044942975 0.0131558403 0.0402711257 0.5799340606 0.0999452099 -0.2107731700 0.2323089987 -0.1269038618 0.0761083141 -0.0890864059 0.3248427212 0.0391374975 0.2520286739 0.0758594722 -0.1361115873 0.0547350198 -0.1514699906 -0.2427954227 0.3998241723 0.1847316474 0.5476977229 0.3273282051 0.1428305954 -0.0724470839 0.2409877330 0.1644638926 0.4413360059 -0.0854632631 -0.2789012194 -0.1813139319 -0.1535997540 -0.1207976267 0.4365298748 -0.1143162921 0.3732675314 -0.1674659699 -0.1286561340 -0.4430487454 -0.0122980950 -0.1948602349 -0.0188460778 -0.1849323660 -0.3579727411 0.1724283844 -0.1672405005 -0.0455764644 -0.0551152639 -0.2541325986 0.0623496920 0.1010409594 0.0305641741 0.1810528040 -0.1179022416 -0.1176609769 0.2580149472 -0.2037462443 -0.0031783793 0.0540335067 0.0490348004 0.4356575906 0.1695141047 0.1551106721 0.0155326547 -0.3403508365 -0.2883459032 -0.0740328431 0.1063018218 0.2231962085 -0.2032192945 0.0707491636 0.0546784103 -0.3432343900 0.1213282049 -0.1539438814 0.2439927459 -0.3755962849 -0.2927479148 -0.4314756393 0.1664618701 0.2607705295 -0.2210979611 0.1328789443 -0.0841695294 -0.1067432240 -0.1260595173 -0.1820194125 -0.2841916680 0.0958361700 -0.0022165903 -0.2611137927 -0.0829466805 0.4542180002 -1.3268586397 -0.0413929559 0.0733101889 0.0783854350 -0.1657261550 -0.1330325752 0.0974918082 -0.2349064946 -0.0260616001 -0.0351800509 0.0070624487 0.1468059272 0.1942040473 -0.1474375874 0.1486279070 0.2084453702 0.1664234251 -0.1542024761 0.6077564955 0.1378040463 0.1578191072 -0.2813212276 -0.2034844160 -0.0354542583 0.1967660636 0.2862462103 -0.0351299979 0.3511233628 -0.2239856124 0.0202974547 0.0139569370 -0.0427491553 0.0287469793 -0.1394061595 0.0507161468
Bleeding_tendency -0.2844822705 -0.1616153717 0.2431801707 -0.4617428780 0.3633856773 -0.0240159836 -0.4061028063 0.1524411887 -0.3016552627 -0.2262662351 0.0311845448 0.0587356836 0.2943686247 0.3395364285 0.0211940575 0.1656450629 -0.3246071935 -0.2658284009 -0.0949339792 -0.2736738026 0.0021517742 0.0819466710 -0.3293591142 0.0068178019 0.1312286109 0.1292650253 -0.1434262246 -0.1128254831 -0.1899803728 -0.2213048339 0.1602860689 -0.2377869487 -0.0729091540 0.2134264112 -0.3475569785 0.1690230817 -0.3272876740 0.1763629317 0.1147139668 0.3393798470 -0.1325906813 -0.2782544494 0.1651874334 -0.2019869089 -0.2191980183 0.2418735623 -0.3348472416 0.1878112257 0.0463861525 -0.0221472923 -0.0954977795 0.0233658440 0.0010796329 -0.1280157566 0.2303717732 0.0818606317 0.6069738269 -0.1185597926 0.0432091579 -0.2628186047 0.1399607658 0.0724416077 0.0769729987 0.2493342757 0.2216213793 -0.1438869387 0.0711878613 -0.5645804405 0.1106785834 -0.2653653026 -0.1508569866 0.0586680621 -0.0119083924 -0.1455565095 0.0783487782 0.2737395465 0.1315013617 -0.0245517306 -0.1034326702 -0.3682663143 0.0495977700 0.1373207420 0.1470312923 -0.0837945938 -0.2126762867 0.0393838733 -0.0725416094 0.0619925708 0.4087561071 0.1184832379 -0.0082005206 0.1946914792 -0.3785358965 -0.1620693207 0.0500652157 -0.3978398740 -0.4328582287 -0.0370442867 0.4308879375 -0.5137071609 0.1275341511 -0.3014809191 0.2236995101 0.0653655455 -0.1186840683 0.2573459744 -0.0777986720 0.4155061245 -0.2800683975 -0.3735291660 -0.1556696296 -0.0307842270 0.2358098328 -0.4539520741 0.0076059117 0.0539856926 0.0092555005 -0.2701269686 0.0441259965 -0.1728298217 -0.3037782609 -0.0896532536 -0.1893202215 -0.1679091156 -0.2186423242 0.0113345003 -0.1272842139 0.1902816147 -0.3977010250 -0.0373368338 0.0887798220 -0.1053601503 -0.2895857990 0.0068272874 0.1129600406 0.4448496699 -0.4268622994 0.1615379006 0.1154212505 -0.0241789296 0.0946429521 0.3044675291 -0.1253664047 -0.0806476399 0.2935017645 -0.1003408283 -0.2346433252 0.0583421141 0.0130398413 -0.2256427705 0.0638946071 0.3819935918 0.0908171684 0.0918262750 -0.1651520133 -0.0365650654 0.0053717736 -0.2479363680 -0.1629534811 -0.3216557503 0.0029295352 0.2712205648 0.1720727384 0.7187546492 -0.1514271796 0.2432770282 -0.3985500336 0.2098989785 -0.0509498864 -0.0409611948 -0.1994274855 -0.1363842785 0.1042689681 0.0011159461 -0.0413503125 0.3624312580 -0.0962720290 -0.4712769389 0.0826561898 -0.0651335120 -1.2192828655 -0.1344744265 0.2297340035 0.0873095468 -0.2462360561 0.2511197627 0.0397745781 -0.1728844792 -0.0951253623 0.2512790561 0.0246548988 0.0917679965 -0.1677782834 0.1095622182 -0.0202124808 -0.4744472504 0.0217566267 0.2864307165 -0.3229252398 -0.1535636187 -0.1035670787 0.1245260984 0.1771680266 0.0570569783 -0.1079008952 0.2830797732 0.1197180301 -0.3013646305 -0.1874143183 -0.3762129545 -0.3022525311 0.2430134565 -0.2724693716 0.0492361486 -0.0640400201 0.1082783416 0.1874560416 0.0077259182 0.0301622413 0.0547303110 -0.0518802106 -0.0710783005 0.4114965498 -0.1901539564 -0.1533369124 0.2537266910 0.0785352066 -0.0852458179 0.1570239216 -0.4696156383 0.1181659997 0.3052786291 -0.1204539314 0.1042734012 0.1231227145 0.2045778930 0.2495484501 0.1343086362 -0.1453214735 0.0245370474 -0.3059543073 -0.1222358942 0.1095343679 -0.0390163362 0.2204170674 0.1323649436 0.0759630874 0.0448119789 0.2483798563 0.0852465555 -0.1424829215 0.3100950718 -0.1721372157 0.3633279502 0.0018532262 -0.2241908163 -0.0599181205 0.0900726169 -0.0891493037 0.0383143798 0.4021609128 -0.1108214110 0.1130361408 -0.2003875226 0.0138828773 0.1314835846 -0.0750992224 -0.0369999483 0.2089636773 -0.0510036424 -0.3602724671 0.0891338065 0.2798315585 0.0192935467 -0.0488021076 0.2303003669 0.1767871231 0.2590674460 0.0277722757 -0.2533944249 -0.2604077458 -0.1538868994 -0.0322755873 0.0149873672 0.2294099331 -0.0024989261 0.0764814690 0.1338249296 0.3014440536 0.2517147660 -0.0491112247 -0.0505888201 -0.0231380276 -0.1744531095 0.3759138882 -0.0326162465 0.0339716077 0.2841947079 0.0569673479 -0.1432041973 -0.2270694077 0.0462672263 0.3633704185 -0.2572275400 0.2998409271 0.3132073283 -0.2087520957 0.0753995329 -6.3071393967 -0.2950717211 -0.0532111302 -0.2778711319 0.0850225016 -0.1992417276 0.0467171073 0.0692300946 -0.2855860591 -0.0252398159 0.1747933626 0.0922227949 -0.3639163971 -0.0337650105 0.0247160047 -0.0931943431 0.2673946321 -0.0053599542 -0.2287895083 -0.2042678297 0.0007267608 -0.1257688850 0.0555684865 -0.0211034752 -0.4131920040 -0.0106784441 -0.0733919740 0.3246960342 -0.1772841066 -0.1159285679 0.1972884983 -0.1647484899 -0.0213110447 0.5420431495 -0.1015830711 -0.0016912064 0.1177722812 -0.0711061135 0.1411810219 0.4147997499 -0.2665450573 -0.1392768919 -0.1458228081 0.1495788693 -0.4829795361 -0.1814967692 0.1909024268 -0.0144389942 -0.0670945793 -0.1318970919 0.1495501101 -0.2226386815 -0.0089382976 -0.1996549815 0.1478831321 0.0854876414 -0.0356880873 0.1320666671 -0.1150028631 -0.1052583605 -0.1285077184 -0.1112068295 -0.1752577126 0.0256168488 -0.2694929838 0.1801424623 -0.0957641751 0.0358975679 0.1389208138 -0.1641888320 0.1424004287 -0.1992235184 0.1330129355 -1.6276700497 -0.2814902961 -0.1855855137 0.4393425584 -0.4789772928 -0.0684626400 -0.3576696515 0.0919269100 0.0667749047 0.0745431557 0.1339088380 -0.4255075455 0.2453424037 -0.2020894140 -0.3379131556 0.0737159848 0.1287377775 0.0403672084 0.4564203024 -0.0709322393 -0.1549790949 0.2965145409 0.0243184045 -0.0968048498 -0.1787236929 0.5435779095 0.3202078640 0.0529395044 -0.2675853074 -0.1084384993 0.3937197030 0.2842920721 -0.0642017797 -0.4207279682 0.0572968721 0.1373271495 0.1608297974 0.2880271375 0.3429665267 -0.0691361129 -0.1162907407 0.1169058904 -0.0078898910 -0.1820588857 -0.2664177120 0.0078752469 -0.0720697194 -0.4457294643 0.0058141844 -0.4237807095 0.0967608094 0.4782787561 0.1210210100 -0.3838071823 0.1329526752 -0.0633479580 0.3372792900 0.1713851094 0.4288120866 0.0804770067 -0.1996715069 0.1381849647 0.3102743328 -0.3739572763 0.3013867140 0.0018908344 0.3180195987 -0.0640686676 -0.1936110109 -0.3050918579 -0.1263972074 -0.1597501040 -0.0306313299 0.0875349715 0.1864143759 0.2829270363 -0.1179451868 -0.0845948756 -0.0643326342 -0.3142839968 0.2395204455 -0.0412788540 0.0723099709 0.2241830528 -0.1842517406 0.1348027736 -0.0085890098 0.0000732522 -0.0509948991 -0.0540848486 -0.1524637640 -0.2054364830 0.1675452888 -0.0728194714 0.2089578062 0.1188620925 -0.3877213895 0.0415749550 -0.1272873282 0.1524403840 -0.2095355093 -0.1352496743 -0.2752888799 0.1251431108 0.1691948920 -0.2088841945 0.5265350342 0.1569315344 0.1739737540 0.1496022046 -0.1997716427 -0.3034137189 0.1542219818 0.0484757312 -0.2870911062 0.0493324734 0.0254330896 -0.4969662428 0.1203229278 0.2186606526 -0.0688892081 -0.0826214924 -0.2553822696 -0.0478364602 0.0550550185 0.0353447050 0.0903048813 0.1223433316 -0.0963682458 0.1941503435 0.1973007470 -0.2114348114 0.0376124047 0.2728424668 -0.1912900507 -0.0364160575 -0.1946269721 0.1447338313 0.0766934380 -0.3004944324 -0.3799963295 -0.1782287806 -0.1416596919 -0.3137809336 -0.3318912089 0.0660784766 -0.2087360471 -0.0740770176 0.1191418394 -0.1084159091 -0.1084047109 0.2677368522 -0.5379411578 -0.2756786942 -0.1479203105 -0.3638327420 0.4853942692 -0.0132046258 -0.0367969535 -0.0988217816 -0.0222713873 0.5428132415 -0.0557798296 0.0865068659 0.3108776808 -0.0561828166 -0.3297067583 0.1775197685 -0.4251789749 -0.2505165935 -0.0465622656 0.0700322166 -0.0943531469 0.1353257895 -0.3206506371 0.1020971537 0.1950326413 -0.2097327858 0.3129878342 0.4217147231 0.0934750140 -0.2448899001 -0.1937240958 -0.0521490239 -0.1082177758 0.4328317344 0.1901878119 -0.2797878385 -0.2122589797 0.0740002096 -0.1497540623 -0.0896661729 -0.0142391771 0.0090784971 -0.1382787526 -0.4092196822 -0.0130329356 -0.0001165774 -0.0904324278 -0.0557362735 0.0791538209 0.2878945470 0.1453369856 0.0046458738 -0.0308731515 -0.3519509733 0.4607908428 -0.1598228067 0.0225262418 -0.2367966771 0.2163776755 0.1527291685 0.4302248657 -0.1212216839 -0.2103618234 0.3032240868 0.1613705605 0.2785693407 0.0998044983 -0.0102990884 0.3711149693 0.1206306443 0.5989471674 -0.0727015212 0.2361747921 0.0263844356 0.0375615247 -0.2098615766 0.4001847506 0.0626732409 -0.1833288670 -0.2081779242 -0.1659792215 0.0589612722 -0.1735548675 -0.1297178417 0.1247280911 0.4122608602 -0.1921617389 -0.2113560587 0.2536386251 -0.2148177028 -0.0713421032 -0.0995379165 -0.3620266020 -0.3065358698 0.3015112579 -0.1428779662 0.7387356758 0.1256063879 -0.3946732581 -0.2200922817 0.0199548658 -0.2071936578 -0.0175383929 0.0963308439 -0.1617458314 -0.0415533558 0.4121920466 0.2132297009 0.4815196991 0.3894505799 -0.0415492617 -0.0241778847 -0.1253291965 -0.2182039320 0.0054928381 -0.0978047475 0.2801491320 -0.0689700991 0.1455063969 0.1754691154 0.0935715958 0.2748931348 0.0363423750 0.0037680082 0.0338371247 -0.1907367110 0.1921919733 -0.2431507409 0.4666463733 0.3842955530 0.1071037278 -0.0170527864 -0.1564797908 0.0112047382 -0.1572294235 0.0852955356 -0.2626622915 0.0307992902 0.1742010117 -0.2159111798 0.3863339424 -0.1262983531 0.1427560151 0.2250516266 -0.2367949039 -0.0787897632 -0.1708139926 -0.0776676387 0.0080298912 0.0743274540 -0.0138699906 0.2128287554 0.2061806619 -0.0116469916 0.0865959451 -0.2430631667 -0.2652521133 -0.0170856304 0.1847986579 -0.0695011169 -0.1934106648 0.1996935904 -0.0329519399 0.1042710319 -0.1122043803 0.1921557784 0.1180609092 -0.3017170429 0.0554603934 -0.2250482142 0.1026710719 -0.1568649560 -0.3534520864 -0.0602933913 -0.0408595726 0.5120795369 -0.4493789971 0.1970233172 -0.0323135927 -0.0772754252 0.2313543707 0.0007574346 -0.1170302257 -0.2596528828 -0.3573058546 0.1019681916 0.0063948636 0.1942558587 -0.1825241596 -0.1060921326 -0.1412123740 -0.1061747819 0.1178820580 0.0618428998 -0.2826458216 0.0818126798 -0.0609690025 -0.1602411568 -0.2277367115 0.2377927005 -1.2015159130 -0.4505134225 -0.0957359672 -0.0820450932 0.1649152040 -0.2600824833 0.1045478731 -0.0047763446 0.1948561966 0.0982377604 0.1383132041 0.2299193740 0.0706506670 0.1684628874 -0.0424634963 -0.0483277887 0.2967624366 0.1513659507 0.3114360571 0.1374325454 0.1389918774 0.2556699216 -0.0419244170 0.1859826744 0.3100461066 0.1187594607 0.2438186705 0.2099937350 -0.1818093807 -0.0636182055 -0.0010900171 -0.1155609414 -0.0187143777 -0.1227884442 -0.1711258143
Blood_in_vomit 0.3336043954 -0.0338177457 -0.0011463370 -0.2222067863 0.4319244325 0.0481807962 -0.3084811568 0.0159636587 -0.4612455368 -0.3052342236 -0.0564405397 0.0164393801 0.4522286057 0.2291046381 -0.0056205723 0.0773163587 -0.0030390737 -0.4046368599 0.1686154455 -0.2689331174 -0.0343239680 -0.0842156485 -0.4187032580 -0.0233409200 0.4053128660 -0.1616714299 -0.0684716552 -0.0092824195 0.3553136587 -0.2764049768 0.0225580540 -0.3062286973 0.0925523490 0.0444394238 -0.4538769126 0.1277816594 -0.3237054646 -0.0793056712 0.0444016531 0.4204519689 -0.3561624587 0.0657082945 0.0560887828 -0.0594270639 -0.1376367509 0.2335345000 -0.0014545902 0.4083587527 0.0505573936 -0.0516559891 0.1755772382 0.0736160204 -0.1646114588 -0.2429018319 0.3716976047 0.0718384236 0.3560599983 -0.1298212856 -0.1031631380 0.0464605801 0.0466891974 0.0049741743 0.2558703125 0.0099104950 0.1246254221 -0.0623516440 -0.2702887952 -0.3078024983 0.1892633736 -0.1190612093 0.0151765570 0.0673448816 -0.1403872073 0.0749358535 -0.0969736725 0.2483449429 -0.0316656306 0.2228312790 -0.2076886445 -0.4780389369 -0.0762835592 0.0581999645 0.2299018353 -0.1703733951 -0.1270714700 -0.1469486356 -0.0927242860 -0.0619014427 0.2062849998 0.0750225633 -0.1905614436 0.1391481459 -0.3605811298 -0.0493680835 0.0023122735 -0.2536490560 -0.5204737782 -0.0046890946 0.1990247518 -0.3538340032 0.1521161199 -0.5839570761 0.2433625013 -0.0632594526 -0.0845348686 0.3293477893 -0.0507577583 -0.0051680007 -0.1015317664 -0.1989516914 0.1573379338 0.0636521652 0.1116160303 -0.2307863533 0.0189536531 -0.0370884910 0.2856398821 -0.2197492123 0.0430829599 -0.3513839841 -0.3170624673 -0.1886364371 -0.0984930545 -0.0830375776 -0.0228049774 -0.2000551969 -0.2966213524 0.1285983026 -0.0673189387 0.1655726135 0.3155315518 -0.1439149231 -0.4484106004 0.1692744941 0.2043897659 0.1997954547 -0.3414633274 -0.1247799769 0.0368831828 0.0733192340 -0.1525139064 0.3308793604 -0.1200492978 -0.1709598601 0.1844559014 -0.0784914196 -0.0840694234 -0.1745408475 -0.2308949530 -0.0042510056 0.0550865605 0.1236624569 0.1324870884 0.1821552217 -0.1338516623 0.1904073805 0.0464518964 -0.1158729047 -0.0942192078 -0.2512286305 0.0179894753 0.2664371133 0.0155124469 0.3588690460 0.0641975850 0.1522325575 -0.1867045462 0.0280476511 -0.1702679694 -0.0504797176 0.2196318805 -0.2008938044 0.1790692210 0.0942668468 0.1697503030 0.3619332910 -0.1614439189 -0.4673112035 0.1562547982 0.1988508999 -1.1005651951 0.0044772178 0.1675334573 0.1391092986 -0.2280631810 0.1396352947 0.0505573861 0.0573041216 0.1044977531 0.2306229323 0.0283498578 0.0863763317 -0.1959995031 0.0430221260 0.1180894151 -0.6109362245 0.0488050506 0.0797668844 -0.0589951091 -0.0980344713 -0.1003983244 0.0180082917 0.1013110429 0.0535866208 -0.1308328211 0.2083490640 -0.0700389370 -0.0364720263 -0.0589004345 -0.3627686203 -0.1700561047 0.0501390472 -0.1812399626 0.1439029276 0.0713429004 0.0499357507 0.3743139207 -0.1711598039 0.0975991860 -0.2291232646 -0.2650702298 0.4555177093 0.3681555092 0.0307059325 -0.2056955844 0.5728328228 0.0201764405 0.0716394931 0.0817949399 -0.2144864351 0.0923524350 0.3662811518 0.0917414129 -0.1844103932 -0.0748302713 0.0096626487 0.5468346477 0.3029145002 0.0195404552 0.0241117962 -0.1306835562 -0.3380475342 0.0330007039 -0.0776598379 -0.0057777157 0.0758461803 0.2011575401 -0.1862731278 0.1166014895 0.0426181033 -0.1529148966 0.1889027655 -0.3556133807 0.0080161132 -0.1331557930 -0.3970559537 -0.2048951685 0.2786076665 0.1712273061 0.0872649699 0.5198966861 -0.1413173676 -0.0215432160 -0.1205574870 0.0192509834 0.2881423533 -0.2419627160 0.0590012372 0.3514742851 0.0825367197 -0.1294883043 0.1457483917 0.2276914567 0.1661067307 -0.2341372967 0.0393931307 0.2007645369 0.1807391644 -0.2152060568 -0.4109114110 -0.1953423172 -0.1596084535 -0.2955070138 -0.0823151320 0.3575929701 0.1677527875 0.3387350142 0.5288407803 0.2224621475 0.0241752975 -0.0694155321 -0.0449984670 -0.0431807563 -0.4120365083 0.4695592821 0.0213013031 0.2224235237 -0.0429472886 -0.1547610313 -0.3465201557 -0.2636704743 0.3137578070 0.2054040432 0.0460837856 0.2063576728 0.3330360651 0.0893925577 0.2525598407 -5.3326263428 -0.3302724659 0.0587401465 -0.1498754919 0.2199747562 -0.0098495763 0.0256093182 0.0259627011 -0.0107257795 0.0027316574 -0.2176302969 0.0141446693 -0.2190746814 0.1539530307 0.0635529980 0.0345581546 0.1797478050 -0.0337047800 -0.0952967852 -0.0236111432 -0.2368994206 -0.1087362766 0.0569335520 -0.1219843626 -0.4091565609 0.0932589918 0.1983703375 0.1118832380 0.0834894627 -0.2562541664 0.2062651813 -0.1129108816 -0.2001614571 0.5379468799 -0.1303734034 0.0442908742 0.1044717878 -0.0357056335 -0.1247480065 0.5909456015 -0.4694489837 -0.0793765560 -0.1155140772 -0.1590698659 -0.0749665126 -0.0004126862 0.2617695928 -0.0661012381 -0.0356662013 -0.0449902155 0.1482418329 -0.1332325041 -0.1273753941 0.0119277062 0.0441763848 0.3060918450 -0.1617605835 0.3407025933 -0.0242061950 -0.1582510769 0.0414938554 -0.1954653561 -0.2987193465 0.0994005129 0.0827646777 0.0634601265 -0.2403511256 0.1873011142 0.1546704918 -0.0639209002 0.0325832330 0.1269869506 0.2055560052 -1.6957175732 -0.1392312944 -0.1020601168 0.6492161155 -0.2009337693 -0.2254484892 -0.3672135174 -0.1525542438 0.0158179142 0.2270111293 -0.2986435890 -0.2698639631 0.0366289467 -0.2391713858 -0.4818581641 0.0398273990 -0.0353976376 0.0859262943 -0.1187608019 0.0685499683 0.0852353200 0.1457125545 0.0335055888 -0.2322864532 -0.0940809548 0.3343797922 0.2272665203 0.1857421994 -0.3915259540 0.0128103141 0.2392747104 0.4035544991 -0.2595108151 -0.0926189870 0.0248488095 0.2138325870 -0.0542210750 0.3652264178 0.1235708147 -0.1307171285 -0.0234016385 0.0086609339 0.2944007516 -0.1014234051 -0.1181844100 0.1014957651 -0.1137065887 -0.1880250573 0.0692045465 -0.2785819471 -0.2489208728 0.2927415967 0.1152076721 -0.3963966072 0.0258931071 0.1038511768 0.4735367894 0.0679456368 0.3564217687 -0.0518425293 -0.0092349369 -0.0974519700 0.1544013321 -0.5879642963 -0.1189109832 -0.0226074792 0.4646162391 0.0691380277 -0.1939805448 -0.0211989544 0.0290562622 -0.0411720499 -0.0935227573 0.2935989201 0.2868218124 0.2610937655 -0.0779563636 -0.2930020690 -0.0602367334 0.0147160692 0.0160908289 0.2136286497 -0.0305942781 0.2274845093 -0.2122902572 0.1386260241 -0.1938603669 -0.1382179260 0.0888217166 0.0544195659 0.3047989011 -0.0662011504 0.2042281926 0.0824028030 -0.1921864152 0.1762226969 -0.5214165449 0.0543899648 -0.1058176383 0.2826371789 -0.0138965892 -0.3732096851 -0.4451857507 0.1430195272 0.0819275081 -0.2605743706 0.4565711021 -0.0343582146 0.3807736337 0.2843026519 -0.3778476119 -0.0943371207 0.5250450373 0.3087800443 -0.0738364235 0.0836105794 0.0002802364 -0.5673484206 0.0514210463 0.2156675756 0.0000861190 0.0001420215 -0.3210816085 -0.0154186096 0.1991700083 -0.0070509589 0.3246097267 0.4254148901 -0.2233606279 0.0247538909 0.2229026258 0.0223033745 -0.0323477834 0.0543700457 -0.1559793055 0.1537913233 -0.0826274529 0.3087635934 -0.1991985589 -0.1852134466 -0.1394972503 0.1233365312 0.1705023646 -0.0887723416 -0.4069715440 -0.0564966388 0.0218171515 -0.2171879709 0.0714523643 -0.2356977463 -0.1336720288 0.3192987740 -0.5212615728 -0.1701210290 0.1832987368 -0.1396881938 0.1464274675 -0.0636666045 -0.7178286314 0.0423358008 0.0258967970 0.4453233182 -0.0657951981 0.4015818536 0.0206704605 -0.2239824980 -0.2040720433 0.2037443817 -0.1356560290 -0.2688546777 0.0444348715 -0.0941089317 0.1670326293 0.1808031499 -0.0820420384 0.0544714853 -0.0860772282 0.1301552355 0.1532511860 0.0129693318 0.1456051916 -0.2706731260 -0.4544255733 -0.0065820618 0.0128912479 0.0385459773 -0.0349151269 -0.0041684643 -0.1453811973 0.1780473888 -0.0880981013 -0.1211290956 -0.1503027976 0.0617682263 -0.0432230793 -0.3037849665 -0.0534924380 -0.1193747297 -0.1029323563 -0.3062579334 0.1306023896 0.4692870677 0.2061964720 -0.1786059439 -0.3875509202 -0.2263484299 0.4029301703 -0.4292334020 0.0162798204 -0.3177033663 0.0398049876 0.1578221917 0.2583386898 -0.0213302113 -0.2827563882 0.1343485415 0.2271348238 0.2606633008 0.2848280668 -0.0326818787 0.1530567706 -0.2274447680 0.3438037336 0.0747593343 0.2082575560 0.0854616314 -0.0759511739 -0.1241175756 0.1701639891 0.1047401652 -0.1697042733 -0.0852183998 -0.1339484900 -0.0354214236 -0.0748952702 -0.0679814965 -0.2762179971 -0.0437472351 0.0065012663 -0.2814387679 0.0762488693 0.0489572957 -0.3354200721 -0.0846591741 -0.0712337121 -0.0551822968 0.0683931857 -0.2585129738 0.0224645138 0.1681440026 -0.3153391480 -0.1046739221 -0.0645932034 -0.3287907243 -0.2092645913 0.1350107789 -0.5945141315 -0.1456892937 0.2536063790 0.0000888705 0.0066311257 0.3765287995 0.1877773702 0.2837062180 -0.2607253194 -0.1367278099 -0.1237851158 -0.0660568178 0.3808948994 -0.3830433190 0.2036422491 0.1825520545 0.2690155506 -0.0255262740 -0.1175142750 0.0300891157 -0.2149546593 -0.2306315899 0.6029971242 -0.1206253767 0.1214829534 0.5219656825 0.1050655469 -0.0989693627 -0.4169372916 -0.1051688343 -0.1117454171 -0.2355176210 -0.2744726539 -0.1307965070 -0.3279209733 -0.0433103777 0.2200670689 -0.0011788092 0.1639609039 0.1581657827 -0.3560834825 -0.5322955251 -0.2877865136 -0.3115243614 -0.1245048270 -0.1417728215 0.0694521964 0.1228418201 0.1230349764 0.1770119369 0.3038719594 -0.2020932734 -0.3248013258 -0.0941828713 0.4291817248 0.1773421764 -0.4624127448 0.2564883828 0.0244032703 -0.1052474231 -0.1267356277 0.0668234080 0.0236942489 0.1070072204 0.1961177289 0.0997387320 0.1772513390 0.1220358759 -0.3934940398 -0.1288785487 0.0337731168 0.3555467725 -0.3039890230 0.0627499372 -0.0682477504 -0.2321647704 0.2391798198 -0.2878834307 -0.2254871875 -0.3067815602 -0.3075224757 -0.1375002265 0.1359016299 0.2353029698 -0.5440838337 0.2381305397 0.0245933533 -0.1999116987 0.3255015910 0.0605062135 -0.1746696830 0.0845600516 -0.1817155182 -0.0914904624 0.1063223705 0.2736326754 -1.3651474714 -0.4137867093 -0.1067926735 -0.1425319910 0.1470909864 -0.2721787095 0.2150369883 -0.1239906102 0.0465047136 0.0207491852 0.1113094538 0.1481351703 0.0745741874 -0.2170204818 -0.3340750337 0.0132112009 0.3922063708 -0.0342685506 0.2754155993 0.1288979352 0.3056066632 0.2867489159 -0.0964254290 0.0686719045 0.0447064191 0.0020774086 -0.0151053770 0.2319139689 0.0010361783 -0.2375530452 -0.0151329562 -0.2889898419 0.2391514480 -0.0241601877 -0.1708337963
